#include "improvedlenet5.h"

#include <stdio.h>
/*
	各层参数
	net=torch.nn.Sequential(
	nn.Conv2d(1,6,kernel_size=5,padding=0),nn.ReLU(),
	nn.MaxPool2d(kernel_size=2,stride=2),
	nn.Conv2d(6,16,kernel_size=5,padding=0),nn.ReLU(),
	nn.MaxPool2d(kernel_size=2,stride=2),nn.Flatten(),
	nn.Linear(256,120),nn.ReLU(),
	nn.Linear(120,84),nn.ReLU(),
	nn.Linear(84,10)
	各层输出
	Conv2d output shape:	 torch.Size([1, 6, 24, 24])
	ReLU output shape:		 torch.Size([1, 6, 24, 24])
	MaxPool2d output shape:	 torch.Size([1, 6, 12, 12])
	Conv2d output shape:	 torch.Size([1, 16, 8, 8])
	ReLU output shape:		 torch.Size([1, 16, 8, 8])
	MaxPool2d output shape:	 torch.Size([1, 16, 4, 4])
	Flatten output shape:	 torch.Size([1, 256])
	Linear output shape:	 torch.Size([1, 120])
	ReLU output shape:		 torch.Size([1, 120])
	Linear output shape:	 torch.Size([1, 84])
	ReLU output shape:		 torch.Size([1, 84])
	Linear output shape:	 torch.Size([1, 10])

*/


const float conv1Weight[6][1][5][5] = { {{{-0.03799153, 0.28564805, 0.44992074, 0.22147746, 0.03152611},
{-0.06161249, 0.07477143, 0.12088747, 0.0794602, -0.00268592},
{-0.11611659, 0.20103273, 0.139534, -0.09591337, 0.12582588},
{0.06776281, 0.3460717, -0.1423426, -0.2167855, -0.02692267},
{-0.07124947, 0.25143158, -0.19548304, -0.42432782, -0.49953598}} },


{{{-0.07587107, 0.08664122, 0.04395856, -0.05731079, -0.04607164},
{0.13326164, -0.22753003, 0.25391144, -0.02322377, -0.1404604},
{-0.09907907, -0.3059415, 0.23590396, 0.08356162, 0.15854917},
{-0.01008778, -0.06907095, 0.10937355, -0.11859892, 0.03237521},
{0.18237826, -0.24343438, 0.28812748, -0.13469374, -0.06352162}} },


{{{-0.1657201, -0.26460472, 0.09882201, 0.07628123, 0.18080932},
{-0.10435603, -0.2111673, -0.06485592, 0.33340728, 0.12685558},
{-0.26300055, -0.17662466, 0.07524469, 0.27091065, 0.04839791},
{-0.19236135, 0.06978443, -0.14560312, 0.04747462, 0.25845245},
{-0.0956405, 0.03530637, 0.04850082, -0.03856015, 0.12046467}} },


{{{ 0.068645, -0.2669977, -0.12068928, -0.1341199, -0.13706823},
{0.04774821, -0.24263698, 0.02771388, -0.06661007, 0.1390394},
{0.07162726, -0.20150983, 0.26346666, 0.08716457, 0.07252628},
{-0.16259629, -0.19456139, 0.31333703, 0.24478503, 0.10265161},
{-0.09972104, -0.06292869, 0.27479455, 0.15653309, 0.10841872}} },


{{{ 0.09043901, -0.6415044, -0.61568063, -0.91246706, 0.23934218},
{0.04717169, -0.28161743, -0.6435873, -0.65725285, 0.09849688},
{0.02699311, 0.41068676, 0.11588609, -0.05681873, -0.01081269},
{0.1832636, 0.13208818, -0.03188801, -0.00106252, -0.13433199},
{0.01843441, 0.30784693, 0.26289177, -0.04039994, -0.12770037}} },


{{{-0.11950569, 0.07147185, -0.08705547, 0.14121704, 0.07248931},
{0.19795604, 0.15653227, 0.10546578, -0.06361793, 0.15526515},
{-0.03054323, -0.15806259, 0.17902195, 0.17564973, 0.00791865},
{0.00145756, 0.01962591, 0.25742254, 0.18909419, 0.22857441},
{0.2966136, 0.33374357, 0.25574458, -0.06136768, -0.09758117}} } };





const float conv2Weight[16][6][5][5] = { {{{ 6.34222999e-02, -2.62134895e-03, -7.19388053e-02, -2.19395101e-01, -1.45030990e-01},
        {3.48401330e-02, 3.77701735e-03, -2.01398030e-01, -1.37529045e-01, -2.83066183e-01},
        {1.69240549e-01, 6.82018176e-02, -5.99862915e-03, -9.10931602e-02, -1.18993841e-01},
        {-6.51629865e-02, -4.28096298e-03, -5.03248982e-02, -5.52408807e-02, -1.68292403e-01},
        {6.57456666e-02, 1.50881097e-01, 1.04057580e-01, -3.43752652e-02, -1.05175659e-01}},

        {{ 1.12270564e-01, 8.17503706e-02, -3.71691920e-02, -3.82306725e-01, -2.30217099e-01},
        {3.61593753e-01, 3.32392067e-01, 2.65923738e-02, -3.25668722e-01, -1.43546745e-01},
        {2.21857235e-01, 3.75641197e-01, 1.28026634e-01, -3.57798487e-01, -2.65069548e-02},
        {5.69809675e-02, 2.80617297e-01, 8.99562761e-02, -1.52501434e-01, 1.76967159e-01},
        {3.68232206e-02, 3.09600770e-01, -6.38650507e-02, -7.69896731e-02, -1.26059800e-01}},

        {{ 7.50598833e-02, -8.98676440e-02, -3.27441126e-01, -1.52348861e-01, -2.30359882e-02},
        {2.17925891e-01, -5.26683629e-02, -1.08937681e-01, -1.02517605e-01, -2.89548002e-02},
        {-4.48428765e-02, 1.74406152e-02, -4.87379581e-02, 7.84673467e-02, -5.78085221e-02},
        {6.62871003e-02, 3.23391706e-02, -7.98787326e-02, 1.65478662e-01, -6.16136603e-02},
        {1.08642913e-01, -4.83476743e-02, -2.34573036e-01, -3.11065540e-02, -3.38680238e-01}},

        {{-3.05165220e-02, -4.94689792e-02, -2.39427119e-01, -1.75201759e-01, -2.35208049e-01},
        {1.16472684e-01, 1.43104583e-01, 6.70521632e-02, -1.23772055e-01, -1.96501091e-01},
        {-4.62764781e-03, 4.58353385e-02, -3.08861993e-02, -2.32473254e-01, -2.50608504e-01},
        {1.32991731e-01, 1.35456026e-01, 4.30920124e-02, -3.22368294e-02, -1.79548219e-01},
        {2.29248613e-01, -8.23359005e-03, -3.31863537e-02, -2.13974044e-02, -6.85308650e-02}},

        {{-7.40500987e-01, -3.45120728e-01, 3.78767103e-01, 6.03910804e-01, 3.27766955e-01},
        {2.15678379e-01, -4.73662326e-03, 5.48835158e-01, 6.32758498e-01, 3.91301870e-01},
        {2.48997733e-01, -2.45586514e-01, -1.05006635e-01, 4.16965991e-01, 7.90595338e-02},
        {-1.96013749e-02, 4.55050729e-02, -2.69563138e-01, 8.62923339e-02, -2.58361679e-02},
        {-1.89108878e-01, 1.36186006e-02, -1.71125352e-01, -7.30412155e-02, 5.73247261e-02}},

        {{ 9.41099748e-02, -6.68940768e-02, -1.46775991e-01, -1.34547666e-01, -1.39510781e-01},
        {-2.78085116e-02, 5.62293120e-02, 3.22491676e-02, -6.23598658e-02, -1.52297854e-01},
        {6.77835271e-02, -5.39766997e-02, 1.75376609e-02, 7.11733252e-02, -8.93760622e-02},
        {7.92261660e-02, 8.23711306e-02, -2.22389493e-02, 4.45650630e-02, 9.00538489e-02},
        {1.20348506e-01, 1.25658810e-01, 9.10612568e-02, 3.51627618e-02, 1.17489681e-01}} },


        {{{-1.50348917e-01, -9.23452675e-02, -2.30042174e-01, -3.39526266e-01, -1.11099400e-01},
        {-1.42173454e-01, -8.95995721e-02, -4.70014438e-02, -2.10058883e-01, -5.32053076e-02},
        {4.97810505e-02, 7.16846362e-02, -1.24852054e-01, -2.26547822e-01, 3.64214070e-02},
        {7.86429569e-02, 8.46610218e-03, -7.25336671e-02, -2.82825660e-02, 4.56861332e-02},
        {3.84285301e-02, 6.67688390e-03, -7.07846209e-02, 7.79480040e-02, -3.59641910e-02}},

        {{ 8.01755711e-02, 1.46125302e-01, 1.88932344e-01, 7.74992406e-02, 9.57197249e-02},
        {2.71156132e-01, 1.66970953e-01, 8.31854343e-02, -4.09857705e-02, 1.91161960e-01},
        {-3.69942933e-02, 8.83324593e-02, 3.09920982e-02, -4.22503315e-02, -3.98319997e-02},
        {1.04641363e-01, 1.27990410e-01, 4.72525954e-02, -1.18640736e-01, -1.24571174e-01},
        {1.63188726e-01, 6.81477487e-02, 9.99219343e-02, -6.88160136e-02, -3.14451344e-02}},

        {{ 1.22569362e-02, -1.28209725e-01, 5.03721051e-02, 1.66136157e-02, 3.45188826e-01},
        {1.16217546e-01, 1.03070460e-01, -1.23693850e-02, 1.07956745e-01, 2.48368189e-01},
        {1.10183045e-01, 9.74086374e-02, -5.63718602e-02, -1.01722004e-02, 1.41463667e-01},
        {9.47538316e-02, 1.39603183e-01, -2.34056488e-02, -9.67829525e-02, -4.92971875e-02},
        {-1.65493996e-03, 4.34264168e-02, 3.15155350e-02, -1.34883791e-01, 4.18053853e-04}},

        {{ 3.91833670e-03, 1.81508660e-02, 7.44659379e-02, 5.47246449e-02, 2.69080758e-01},
        {1.27925813e-01, 1.19080409e-01, 8.33455399e-02, 1.26971617e-01, 2.29461700e-01},
        {3.84896658e-02, 9.30806249e-02, 4.28703912e-02, 9.30579305e-02, 3.91155630e-02},
        {8.95931646e-02, 4.02640998e-02, 6.08177762e-03, 7.12992474e-02, -1.42505065e-01},
        {7.41633922e-02, 7.16530904e-02, 1.11919604e-01, 1.21080011e-01, 4.78196666e-02}},

        {{-4.20546904e-02, 5.55027544e-01, 5.46819985e-01, 3.56654853e-01, 1.12697788e-01},
        {1.98099390e-01, 3.97992879e-01, 3.50681931e-01, 2.76737362e-01, -3.77993099e-03},
        {2.92408496e-01, 9.85311791e-02, 2.83359021e-01, 2.92807996e-01, -3.74832749e-02},
        {1.42604783e-01, 1.09336235e-01, 3.10690820e-01, 5.45114994e-01, -1.94235489e-01},
        {4.94818948e-02, 9.85221043e-02, 2.40989830e-02, 3.24607939e-01, 8.58435556e-02}},

        {{-2.67390341e-01, -2.30918929e-01, -2.98095703e-01, -2.05552444e-01, -1.38831824e-01},
        {-1.48211032e-01, -7.47123733e-02, -9.69904140e-02, -1.51479721e-01, -2.25484278e-02},
        {3.54096107e-02, -8.58592317e-02, -4.22670469e-02, 1.72562022e-02, 1.06988184e-01},
        {1.26608480e-02, -2.05146670e-02, 1.33248838e-02, 5.77184968e-02, 6.33066967e-02},
        {1.03861041e-01, 3.63376662e-02, 4.55117039e-02, -2.10287496e-02, 1.35211879e-03}} },


        {{{ 6.22567534e-03, 1.22624710e-02, 8.32813978e-02, -8.82044528e-03, -5.61677925e-02},
        {-7.41686076e-02, 1.52140513e-01, 1.34826779e-01, 3.50471735e-02, 2.13732645e-02},
        {-6.94990158e-02, 1.40091881e-01, 4.20990586e-02, -6.81547448e-02, 1.49231702e-02},
        {-6.12693802e-02, 1.07296884e-01, -3.44342343e-03, -1.07188582e-01, -5.84657528e-02},
        {2.02709176e-02, 3.09934258e-01, 2.26108339e-02, -7.34053105e-02, -6.42396212e-02}},

        {{ 1.21886805e-01, 3.30725342e-01, 4.06802483e-02, -8.62039179e-02, 3.14921588e-01},
        {-2.41160169e-02, 1.74459085e-01, 1.30580544e-01, -4.62987013e-02, 1.64945740e-02},
        {-1.41960114e-01, 1.13769747e-01, 8.71410519e-02, -3.10725775e-02, -2.39894092e-02},
        {-2.26629302e-01, 1.67160571e-01, 1.77732870e-01, -1.86440527e-01, -9.60776508e-02},
        {1.60293996e-01, 1.65020570e-01, 1.74518630e-01, -1.34404078e-01, -2.17320800e-01}},

        {{-6.06363118e-02, -1.18212260e-01, 4.34996396e-01, -4.27639447e-02, -3.12999159e-01},
        {-5.58553375e-02, -4.91180792e-02, 2.61905044e-01, -2.58894060e-02, -2.19192848e-01},
        {-9.88073926e-03, -3.33586931e-02, 1.05709389e-01, -5.76108182e-03, -7.54162744e-02},
        {1.10329024e-01, -1.90459847e-01, -1.49579197e-01, 1.43952608e-01, 1.02506563e-01},
        {1.84407577e-01, -2.34955549e-01, -3.36761415e-01, 1.81216016e-01, 1.03527538e-01}},

        {{-3.05128563e-02, 2.09219102e-02, 4.67071831e-01, 3.69066074e-02, 3.80162708e-02},
        {-1.09349368e-02, -1.31920770e-01, 1.10113285e-01, -9.29065794e-02, 9.90254581e-02},
        {-5.77111207e-02, -9.13603529e-02, -7.08279982e-02, -4.11212407e-02, 9.03738737e-02},
        {6.63966909e-02, -2.47024834e-01, -9.30393562e-02, 2.97957927e-01, 1.41415924e-01},
        {3.50177914e-01, -3.11183751e-01, -1.39920264e-01, 8.50990266e-02, 5.62683530e-02}},

        {{ 1.71780482e-01, 2.81395972e-01, -3.77606265e-02, -1.52002290e-01, 4.26878005e-01},
        {-3.92418563e-01, -1.83358658e-02, 7.55850002e-02, -1.26085043e-01, 4.89221931e-01},
        {-1.67487592e-01, -5.30858561e-02, -2.31175005e-01, -3.24726969e-01, 2.81153738e-01},
        {1.11173108e-01, 8.99453759e-02, 1.42487854e-01, -7.86059350e-02, 1.48718864e-01},
        {3.40885818e-02, 3.10845405e-01, 5.18363833e-01, 1.38249263e-01, -3.85155648e-01}},

        {{-2.05777418e-02, -8.13026950e-02, 7.07236975e-02, 2.51526739e-02, -8.53499025e-02},
        {1.21076335e-03, 8.17189142e-02, 6.54256204e-03, 7.59127587e-02, -3.04506999e-02},
        {2.43231356e-02, -2.35051606e-02, -8.80456343e-02, -1.17633551e-01, 3.44343893e-02},
        {1.01265572e-01, -8.21011961e-02, -1.33521825e-01, 1.83369275e-02, 6.47903234e-02},
        {1.81879997e-01, 1.55509204e-01, -1.57183200e-01, -1.45339221e-01, -5.53237945e-02}} },


        {{{ 5.72636016e-02, -9.91178676e-03, 6.05605431e-02, -1.60161361e-01, 1.39427513e-01},
        {-1.18151195e-01, -4.26215958e-03, 9.03401747e-02, -1.40690953e-01, 4.99660969e-02},
        {8.40309262e-02, 7.67964497e-02, 1.01943076e-01, -1.72372349e-02, 1.04016654e-01},
        {2.90711168e-02, 2.67483145e-01, 6.47605732e-02, 3.89756858e-02, 7.06496537e-02},
        {4.75263111e-02, 1.34590328e-01, -4.80007082e-02, -1.09205499e-01, 1.34489998e-01}},

        {{-2.76540071e-01, 6.87744170e-02, 1.79494068e-01, -2.60688663e-01, -1.33824557e-01},
        {-5.69251366e-02, -4.24118303e-02, 2.68617775e-02, -5.24535514e-02, -7.24479854e-02},
        {-1.72732741e-01, -1.29815675e-02, -2.74196751e-02, -1.00395586e-02, -1.97579563e-01},
        {-7.39159659e-02, 1.06456615e-01, 1.82013854e-01, 2.29403317e-01, 5.77032603e-02},
        {-3.17371190e-01, -3.19322050e-01, 2.07800299e-01, 1.83176666e-01, -1.43994093e-01}},

        {{-6.54380769e-03, 1.04118094e-01, -9.77055505e-02, -4.29106265e-01, -1.21039882e-01},
        {3.70978587e-03, -4.68749600e-03, -1.68416336e-01, -3.55871111e-01, 9.29609314e-03},
        {-1.00388907e-01, 9.01049972e-02, -1.55101642e-01, -2.48444676e-01, 1.13213018e-01},
        {-1.17464535e-01, -2.75962073e-02, 1.38074048e-02, 2.35177651e-01, 2.60852367e-01},
        {-2.62759686e-01, -4.82066274e-01, 2.38779813e-01, 5.34021914e-01, 3.07282507e-01}},

        {{-1.48358583e-01, -7.95984343e-02, -1.53474044e-03, -4.43066061e-02, 4.55961525e-02},
        {9.77282971e-02, 1.36341736e-01, -3.27846743e-02, -9.73283872e-02, 9.06573832e-02},
        {4.16064495e-03, -2.76020709e-02, -2.75986101e-02, 4.13133204e-02, 8.26440826e-02},
        {-8.70439038e-02, -3.51454288e-01, -1.23513915e-01, 1.25688508e-01, 2.89765805e-01},
        {-3.43668103e-01, -6.01686299e-01, -1.26901910e-01, 2.18585625e-01, 1.46979347e-01}},

        {{ 1.91037685e-01, 1.33245783e-02, 1.17978111e-01, -1.46647856e-01, 1.17900465e-02},
        {9.55421403e-02, 2.36076131e-01, 2.01790690e-01, -2.01898590e-01, -2.60207266e-01},
        {2.66007483e-02, 4.89080437e-02, 1.85909078e-01, -7.39136264e-02, -2.16690063e-01},
        {2.01248556e-01, 1.05962008e-01, -1.04842916e-01, -1.46719843e-01, -2.67278820e-01},
        {4.64694411e-01, 2.42990479e-01, -2.65362114e-01, -1.27052367e-01, -2.03403592e-01}},

        {{ 1.34483585e-03, -6.15894375e-03, 1.20301303e-02, -1.29429586e-02, 4.03664000e-02},
        {2.88846940e-02, 1.00537106e-01, -1.33410597e-03, 8.79820958e-02, -1.35156447e-02},
        {1.52042806e-01, 1.52634382e-01, -1.60333868e-02, 8.52099955e-02, 6.91710562e-02},
        {1.01811543e-01, 6.09395392e-02, 4.98299040e-02, 6.03257343e-02, 1.63332656e-01},
        {-1.77154124e-01, -2.22178593e-01, -2.93580174e-01, -1.86712101e-01, 4.11689319e-02}} },


        {{{-7.52533600e-03, -1.44821241e-01, -1.94172598e-02, -2.99523115e-01, -2.82835484e-01},
        {9.62782279e-02, -4.86950539e-02, 2.80328784e-02, -7.36873373e-02, -2.25765854e-02},
        {3.81572433e-02, -6.80695549e-02, -1.32843480e-01, 8.31178576e-03, -9.33866426e-02},
        {-6.46163523e-02, 6.94472995e-03, 1.65536571e-02, -4.25307043e-02, -5.31697087e-02},
        {4.98812608e-02, 1.84085563e-01, 2.17542231e-01, 1.90682620e-01, 9.81055722e-02}},

        {{ 2.12531641e-01, 3.45929831e-01, 2.33334661e-01, 6.66549057e-02, -2.74078161e-01},
        {5.13731651e-02, 1.77041173e-01, 4.43028510e-02, -2.30114788e-01, 1.00214548e-01},
        {4.26653251e-02, -1.63707566e-02, -4.96182851e-02, -3.85306664e-02, -3.86740603e-02},
        {5.45301177e-02, 7.84050748e-02, 8.13725069e-02, -3.56961526e-02, 3.63671258e-02},
        {1.47360444e-01, 3.10889184e-01, 8.30164775e-02, 5.62785715e-02, 2.12205853e-02}},

        {{ 4.18694392e-02, -1.90010354e-01, -7.61346295e-02, -1.48797303e-01, 2.58329421e-01},
        {-4.34172712e-02, 1.15190454e-01, 1.19694918e-02, 1.27024408e-02, 4.97150794e-02},
        {-6.50103465e-02, 6.75775064e-03, 1.72172543e-02, -2.32906893e-01, -1.64223373e-01},
        {2.33793017e-02, -3.31960246e-02, 5.11917658e-02, -4.55456041e-02, -4.41107191e-02},
        {1.18252255e-01, -8.23470801e-02, 2.15958729e-01, -1.43063068e-02, -9.26791355e-02}},

        {{-4.60785069e-02, 6.68193772e-02, 1.46494761e-01, 2.25770995e-01, 1.75982609e-01},
        {-2.83052642e-02, 7.93108437e-03, 7.02140555e-02, -3.74297574e-02, -2.45108485e-01},
        {4.94922884e-03, 3.40161123e-03, 6.14592396e-02, 3.76285575e-02, -6.67446852e-02},
        {5.56262508e-02, 4.32887487e-03, 2.16429338e-01, 1.24264635e-01, -2.02123616e-02},
        {1.58070683e-01, 1.68413103e-01, 2.03286499e-01, 1.58995658e-01, -1.34581253e-01}},

        {{-1.60752773e-01, 6.42934322e-01, 6.00316375e-02, 5.58199048e-01, 6.30337656e-01},
        {1.77353993e-01, 4.49166484e-02, -8.07994306e-02, -9.28308517e-02, 1.94279298e-01},
        {-1.97370537e-03, 1.68791905e-01, 4.81899865e-02, 2.13036343e-01, -2.82130670e-02},
        {9.76578072e-02, 3.41197193e-01, -1.83010504e-01, 8.27145576e-02, -5.43958023e-02},
        {-2.85849452e-01, 1.10174581e-01, -7.98570216e-02, -1.67135134e-01, 1.96464390e-01}},

        {{ 5.11908252e-03, -1.31229013e-01, -9.13277641e-02, -3.09350222e-01, -2.08788797e-01},
        {1.90829262e-02, 2.51070093e-02, -2.15476658e-02, -1.48547515e-01, -1.09460197e-01},
        {2.71614809e-02, -1.14177167e-02, -1.06672794e-01, 6.68368861e-02, -8.69086850e-03},
        {-2.15611663e-02, -5.45783667e-03, 6.57753870e-02, 6.04782701e-02, 4.38613035e-02},
        {1.05816014e-01, 3.94338593e-02, 1.31126821e-01, 1.26907766e-01, 1.91274121e-01}} },


        {{{ 7.67726079e-02, -2.56677642e-02, -3.74287106e-02, 1.18750297e-02, 1.19405799e-02},
        {1.04750907e-02, 2.32194196e-02, 1.49821371e-01, 8.37112442e-02, -3.10238842e-02},
        {3.34023833e-02, -4.00884226e-02, 7.12806284e-02, 8.01380128e-02, -2.84591466e-02},
        {4.95522358e-02, 4.74960878e-02, 1.59845501e-02, 1.84644293e-02, -2.17342228e-01},
        {5.13137579e-02, 1.29231706e-01, 1.66263625e-01, -3.72739434e-02, -3.14216405e-01}},

        {{ 7.54153877e-02, 1.83467373e-01, 2.75686115e-01, 1.26238450e-01, -8.84974748e-02},
        {1.94349229e-01, -6.22907728e-02, -2.05430929e-02, 2.57590562e-02, -1.52808372e-02},
        {1.83002219e-01, -1.30376011e-01, 8.22033733e-02, -4.22123522e-02, -8.69640410e-02},
        {2.26772532e-01, 7.95165077e-02, 1.64353158e-02, -7.02192560e-02, -2.17754930e-01},
        {5.50943278e-02, 1.23018287e-01, -3.84165458e-02, 2.30215583e-02, -3.13391566e-01}},

        {{-3.85793597e-02, -3.21601797e-03, 1.02200158e-01, 1.41158119e-01, 2.19028100e-01},
        {-2.87032556e-02, 8.34078565e-02, 2.87133716e-02, 2.60337424e-02, -2.79225800e-02},
        {5.91632277e-02, -3.42018567e-02, -6.15867563e-02, -2.23311428e-02, 5.65676168e-02},
        {9.26926546e-03, 4.06865738e-02, -9.86293107e-02, 8.33102465e-02, 1.57076940e-01},
        {1.09473556e-01, -7.51118350e-05, -1.48646653e-01, 2.40204744e-02, 1.59155086e-01}},

        {{-9.27970707e-02, -3.80694121e-02, 3.65257226e-02, 3.16441625e-01, 1.78530872e-01},
        {9.34719741e-02, -4.74674534e-03, -4.30049300e-02, 8.60999823e-02, 7.19465166e-02},
        {1.02676623e-01, 1.98804494e-02, 1.01579512e-02, 1.62648231e-01, 3.26317400e-02},
        {1.55207664e-02, -6.49845451e-02, 5.72159886e-02, 1.65905550e-01, 1.34471729e-01},
        {6.45300001e-02, 1.02771325e-02, -3.15907970e-02, 2.96873283e-02, 7.60866106e-02}},

        {{ 2.96066366e-02, 1.01565406e-01, -9.42803696e-02, 2.82938182e-01, 2.34567508e-01},
        {1.24842092e-01, -2.89174728e-02, 1.80561636e-02, 5.41109964e-02, 1.76978320e-01},
        {3.61274891e-02, -2.24440005e-02, 1.21672191e-01, 2.61036068e-01, -1.14853662e-02},
        {-1.07585285e-02, -6.27686530e-02, 2.32327893e-01, 4.57401305e-01, 3.45294625e-01},
        {2.41665512e-01, 1.84852734e-01, 2.98147976e-01, 5.59610248e-01, 4.23920184e-01}},

        {{ 5.16992435e-03, 4.81702089e-02, -6.18502572e-02, -7.61360154e-02, -8.94210711e-02},
        {1.28260359e-01, 8.55569467e-02, 3.60676907e-02, 3.61406840e-02, 1.30143622e-03},
        {3.86204645e-02, -4.84919995e-02, -6.31440952e-02, -1.64738566e-01, -5.69413863e-02},
        {2.05755234e-01, 8.90205950e-02, 1.73390657e-02, -1.57579362e-01, -2.05379471e-01},
        {4.11532670e-02, 5.03169037e-02, -5.87207228e-02, -9.68210548e-02, -2.22215489e-01}} },


        {{{ 8.92507434e-02, 2.20988467e-01, 1.66788071e-01, 2.38353819e-01, -1.42930066e-02},
        {-9.96687636e-03, -2.38104090e-02, 1.18954241e-01, 1.30966548e-02, -1.01625994e-01},
        {-2.07372848e-02, 5.98008335e-02, -3.36001962e-02, 6.93281591e-02, -1.13703780e-01},
        {-6.34234771e-02, -9.64998826e-02, -7.42952824e-02, -2.11367831e-02, -9.77750272e-02},
        {1.23153694e-01, -2.03584641e-01, -4.29613926e-02, 1.35075692e-02, 1.05882257e-01}},

        {{ 6.09821640e-02, -2.25250185e-01, 3.10335141e-02, -1.37660503e-01, 1.60580903e-01},
        {-9.16797072e-02, -4.56825122e-02, -6.24623373e-02, -1.76097795e-01, -8.64889249e-02},
        {-4.80506010e-02, 1.03940949e-01, -1.37503639e-01, -4.53078151e-02, 1.11418977e-01},
        {6.47220388e-02, 1.06154889e-01, -1.79183539e-02, 5.90036018e-03, 1.29138559e-01},
        {-7.15541653e-03, 3.29114757e-02, 1.25998408e-01, -1.17474869e-01, 3.57098490e-01}},

        {{ 1.52889386e-01, -5.68330511e-02, -2.71239191e-01, -3.73730175e-02, -6.22420646e-02},
        {-1.97582632e-01, 1.82240363e-02, -2.26341665e-01, -1.41443148e-01, 8.88748851e-04},
        {4.97071259e-02, 5.18463552e-02, -1.13854229e-01, -4.23553288e-02, -7.67225251e-02},
        {-2.65256166e-02, 1.46352369e-02, -1.40509635e-01, 2.20635589e-02, -6.24278113e-02},
        {-9.90094841e-02, -3.48583460e-02, 1.57503545e-01, 1.21850386e-01, -1.10144958e-01}},

        {{ 1.79370418e-02, -2.33725667e-01, -1.60242498e-01, -1.73140809e-01, -3.12203884e-01},
        {-1.58630863e-01, 2.39063911e-02, -7.67857134e-02, -2.68054567e-02, -2.16344431e-01},
        {4.14046235e-02, 8.15968812e-02, -4.62961532e-02, 1.02480818e-02, -1.55485645e-01},
        {-1.62030518e-01, -1.54941350e-01, 3.04383505e-02, 9.36004966e-02, -1.89763606e-02},
        {-2.69662440e-01, -2.10134253e-01, 2.87650585e-01, 1.77426301e-02, 6.72926307e-02}},

        {{ 3.08219999e-01, 1.40575886e-01, -3.32439125e-01, -3.37084264e-01, -4.28087339e-02},
        {1.40106633e-01, 4.56236713e-02, 1.40554279e-01, -1.29585275e-02, -1.12794586e-01},
        {8.71503502e-02, 3.50509137e-02, -1.90365803e-03, 3.06969285e-02, 4.43231538e-02},
        {-5.23121431e-02, -1.29491284e-01, -1.70088917e-01, -7.55389705e-02, 1.20221794e-01},
        {4.22195829e-02, -8.43036547e-02, -1.40546188e-01, -2.31521949e-01, -1.03712104e-01}},

        {{-3.99936885e-02, 8.41346532e-02, 1.36264652e-01, 1.02063656e-01, 1.43507831e-02},
        {5.22893993e-03, -7.92067423e-02, -6.02864139e-02, -2.77750120e-02, 3.45957056e-02},
        {-9.04973447e-02, 5.48746735e-02, 1.97576098e-02, 4.59051803e-02, 7.26643056e-02},
        {-3.32893208e-02, 1.46482862e-03, 7.55991265e-02, -1.21352253e-02, 5.62333092e-02},
        {-2.69790497e-02, -3.80785726e-02, -9.81296785e-03, 1.10751703e-01, 1.23882353e-01}} },


        {{{ 5.52582070e-02, 7.66346678e-02, 1.12036534e-01, -4.61082980e-02, -1.45614576e-02},
        {5.71784526e-02, -7.66013712e-02, -7.28757605e-02, -8.54076967e-02, -4.79640625e-02},
        {-1.60629302e-02, -2.85398327e-02, -3.91147062e-02, -1.42703289e-02, 2.09409613e-02},
        {1.97958183e-02, -5.62042780e-02, 7.42043182e-02, -6.40204325e-02, 7.57267475e-02},
        {5.72798327e-02, 7.24291727e-02, 8.71239901e-02, -1.21848039e-01, -1.35594979e-02}},

        {{ 1.44875512e-01, -3.25305581e-01, -2.79145867e-01, -2.11816743e-01, -1.65014669e-01},
        {3.07036787e-01, -4.54000950e-01, -1.38351768e-01, 7.47982133e-03, -7.88962618e-02},
        {1.80401951e-01, -3.92638564e-01, -2.67541349e-01, -2.70104185e-02, 1.95205465e-01},
        {1.67088658e-01, -2.29606852e-01, -2.42376968e-01, -2.58381478e-02, 2.15828329e-01},
        {3.31753314e-01, -3.02907914e-01, -5.13252378e-01, -1.09170847e-01, 1.39671460e-01}},

        {{ 2.68465057e-02, -7.08849654e-02, -1.73282951e-01, -1.61416262e-01, 1.80186406e-01},
        {2.85513401e-02, -8.89041647e-03, -3.45976055e-02, -7.62279034e-02, 1.35538235e-01},
        {-2.16540578e-03, 1.18828841e-01, 6.41499832e-02, 7.29809403e-02, 1.18599214e-01},
        {1.73535243e-01, 1.15408644e-01, -1.84205994e-01, -5.46580739e-02, 2.05530003e-01},
        {2.36542851e-01, 1.03810184e-01, -2.73741841e-01, 2.36784364e-03, 1.45942539e-01}},

        {{-3.69828679e-02, -1.88972712e-01, -3.98538202e-01, -2.33539313e-01, -1.66487604e-01},
        {9.92602333e-02, 4.89859655e-03, -5.24580069e-02, 9.31360060e-04, -2.13259421e-02},
        {1.10911258e-01, -7.76192993e-02, -8.85376483e-02, 8.39153826e-02, 3.81475128e-02},
        {1.80170804e-01, -3.93980034e-02, -2.46828169e-01, 6.10701554e-02, -8.88451859e-02},
        {3.94011050e-01, -5.34203984e-02, -3.72574121e-01, 1.07672870e-01, -2.43753254e-01}},

        {{-3.99493694e-01, -2.37070680e-01, -1.96567297e-01, -2.31483623e-01, -4.22677159e-01},
        {-1.86228842e-01, -1.59102261e-01, -2.16341496e-01, -5.16521670e-02, -2.57826865e-01},
        {-3.71137768e-01, -9.55952927e-02, -8.80936608e-02, -3.81624177e-02, -1.93575382e-01},
        {-4.98509854e-01, -3.46025787e-02, -8.56149644e-02, 5.80614693e-02, -4.79389101e-01},
        {-1.67234391e-02, 1.21302076e-01, 6.91660354e-03, 2.48626307e-01, -4.84719247e-01}},

        {{ 2.84323134e-02, 1.03795394e-01, -3.64881977e-02, 6.46430030e-02, 5.18134050e-02},
        {2.82747075e-02, -2.09194254e-02, 1.03446700e-01, 3.73524912e-02, -2.73883529e-02},
        {-7.56107718e-02, 4.53217849e-02, 2.42109019e-02, 7.87841901e-02, -2.91285366e-02},
        {-8.54270533e-02, 2.60645505e-02, 5.35419583e-02, 6.41768798e-02, 1.75224431e-02},
        {1.04495749e-01, 8.54060277e-02, 1.00189082e-01, -1.08093843e-01, 4.03850377e-02}} },


        {{{ 4.86894771e-02, 1.36127584e-02, 8.76751021e-02, 7.84771889e-03, 1.11867853e-01},
        {-7.06929341e-02, -1.09926000e-01, 1.04034968e-01, -9.24563035e-02, -1.36458725e-01},
        {-1.03695489e-01, 2.16562096e-02, 8.53959918e-02, -1.41117364e-01, 6.53061047e-02},
        {-9.47104394e-02, -1.02355029e-03, 1.21215239e-01, 8.32251459e-03, 2.13012755e-01},
        {1.33267462e-01, 1.17033876e-01, 1.90956280e-01, 9.72705781e-02, 1.35230526e-01}},

        {{ 5.40811121e-02, 1.71655849e-01, -6.47151619e-02, -3.20587337e-01, 6.43341169e-02},
        {1.30047783e-01, 4.74982820e-02, -2.06518725e-01, -4.23991978e-01, 7.88892359e-02},
        {-1.76613599e-01, -3.51519324e-02, -1.57253876e-01, -3.20053667e-01, -1.50489718e-01},
        {-1.23246685e-01, 9.26308632e-02, -1.82876259e-01, -5.14160872e-01, -2.24180654e-01},
        {-1.05094977e-01, -1.46344036e-01, -4.50363100e-01, -5.97547054e-01, -4.86192912e-01}},

        {{ 1.48970000e-02, 2.85438038e-02, 1.67905092e-01, 1.45052955e-01, 3.17528583e-02},
        {-1.03598796e-01, -8.47008228e-02, -4.16921377e-02, 5.75643107e-02, 2.98615336e-01},
        {-1.18043467e-01, -6.70650005e-02, -6.40380308e-02, 6.89965859e-02, 3.09423685e-01},
        {-2.22303495e-02, 5.10584190e-02, 2.89048557e-03, 1.98853649e-02, -2.52893329e-01},
        {1.20764682e-02, -1.82776108e-01, -2.93706477e-01, -1.59736454e-01, -3.80991131e-01}},

        {{-1.68132141e-01, -2.44096473e-01, 2.05641780e-02, -2.55790859e-01, -3.67629752e-02},
        {-7.58310705e-02, -4.51785699e-02, 1.37538582e-01, -1.08447401e-02, 3.25581998e-01},
        {-6.17357269e-02, 9.84523073e-03, 4.74697411e-01, 5.06511867e-01, 3.94131094e-01},
        {3.98767106e-02, 1.28753688e-02, 2.95031667e-01, 2.69722521e-01, 1.53582133e-02},
        {8.66404101e-02, -3.75955552e-01, -3.61100972e-01, -2.95833826e-01, -5.18046319e-01}},

        {{ 5.37471846e-02, -1.82109438e-02, 2.50715166e-01, -3.29399407e-01, -9.89309624e-02},
        {8.91786255e-03, -5.47426455e-02, -5.89534454e-03, -3.24277043e-01, -2.53836721e-01},
        {1.03273399e-01, -2.15485785e-02, -4.24969494e-02, -6.26934841e-02, 2.51856774e-01},
        {4.32718515e-01, 1.92332834e-01, 1.06751919e-01, 1.04379458e-02, 2.86215574e-01},
        {8.14250886e-01, 4.37076777e-01, 2.56133378e-01, -1.71619579e-01, -1.76113471e-01}},

        {{-1.98114365e-02, 2.74792034e-02, 9.42132324e-02, 2.78390814e-02, 4.90940213e-02},
        {-6.58660382e-02, -9.84447896e-02, -1.00949416e-02, -4.29969355e-02, 1.15761362e-01},
        {-3.00503187e-02, 7.87005723e-02, 1.06613990e-02, 1.68781145e-03, 1.29564360e-01},
        {3.93931605e-02, 1.40756611e-02, 8.93639401e-03, 1.50460601e-01, 1.79365292e-01},
        {1.49767995e-02, -3.56262475e-02, -8.92215148e-02, -8.97061601e-02, -1.95396006e-01}} },


        {{{-1.78162500e-01, -7.96338543e-02, -2.00697243e-01, -1.13561966e-01, 3.00345302e-01},
        {-4.33619833e-03, 6.44049868e-02, 4.34652157e-02, -1.62043478e-02, 1.96874186e-01},
        {-4.04882357e-02, -2.22663376e-02, 1.82715636e-02, -5.73146194e-02, 5.28212544e-03},
        {4.79048938e-02, 1.56686261e-01, -7.38993753e-03, -8.29625577e-02, -2.66126115e-02},
        {1.76075265e-01, -5.22459261e-02, -6.92641512e-02, -1.27411991e-01, 3.00768763e-01}},

        {{ 1.56744659e-01, 1.11243501e-01, -4.48755592e-01, 1.03036404e-01, 3.70844156e-01},
        {-5.49308844e-02, -1.34958833e-01, 1.19167998e-01, 8.30761120e-02, 3.32131922e-01},
        {1.74915850e-01, 1.51124179e-01, 2.88021535e-01, 3.94852459e-02, -3.46310884e-02},
        {6.54955953e-02, 1.30014494e-01, 4.17496920e-01, 3.57534021e-01, -8.40232447e-02},
        {6.05786592e-02, -7.11053982e-02, 5.09662516e-02, 6.56410456e-01, 3.17550488e-02}},

        {{-9.09193084e-02, -1.63397416e-01, 9.75978747e-02, 3.74076813e-01, -2.42817327e-02},
        {-1.13962010e-01, 1.87486541e-02, -5.60064986e-02, 1.84517562e-01, -3.59117775e-03},
        {-8.26187730e-02, 4.78616804e-02, -4.60816100e-02, 9.07194167e-02, -3.60995494e-02},
        {-6.27184212e-02, 8.11578259e-02, -1.49277240e-01, -4.41173613e-02, -1.49060011e-01},
        {4.34672199e-02, -5.57544306e-02, 2.70863082e-02, 2.90280104e-01, -2.78698742e-01}},

        {{ 1.18285924e-01, 1.58758163e-01, 8.72788802e-02, 1.01055495e-01, -1.92571208e-01},
        {1.16446488e-01, -2.18585841e-02, -1.60644241e-02, -3.19061950e-02, 1.48986299e-02},
        {7.40845725e-02, 2.57735729e-01, -7.20216557e-02, -4.95588481e-02, 8.51858109e-02},
        {4.09532115e-02, 1.91130534e-01, -2.68866003e-01, 1.24578793e-02, 3.50445323e-02},
        {-1.35728359e-01, -2.94116698e-02, -1.24517180e-01, 5.42630494e-01, 1.23144746e-01}},

        {{-2.24116400e-01, 1.52005449e-01, 3.42521578e-01, -1.23557545e-01, -6.55491203e-02},
        {-1.12957424e-02, -1.29374653e-01, -1.10477880e-01, 1.00819133e-01, 1.96379900e-01},
        {-4.78898734e-02, 1.74350619e-01, 3.93421389e-02, -1.58184931e-01, 1.25198066e-01},
        {-1.26996309e-01, -2.22079262e-01, -2.03585923e-01, -1.25295088e-01, -4.29244637e-02},
        {-1.26204118e-02, -8.93715769e-02, -5.81513569e-02, -1.42099902e-01, -1.92190781e-01}},

        {{-9.95608941e-02, -1.62663519e-01, -3.51181813e-02, 1.36195764e-01, -5.31224832e-02},
        {-1.10364310e-01, -1.77079104e-02, -4.65176962e-02, 8.67784917e-02, -1.32091064e-02},
        {-4.68277670e-02, -5.46250306e-02, -6.03658184e-02, 6.98356144e-03, -1.68852322e-02},
        {8.82093757e-02, 1.10861048e-01, -5.03619090e-02, 2.58045662e-02, -8.50614235e-02},
        {8.62262771e-02, -2.61398666e-02, -5.02251424e-02, 6.68618083e-02, 9.81236696e-02}} },


        {{{-1.14032179e-01, -3.53779018e-01, -8.01914260e-02, 1.00974724e-01, 4.84630764e-05},
        {-6.17042519e-02, -5.28095998e-02, 5.07628955e-02, 7.90367499e-02, -6.23919480e-02},
        {-7.87848234e-02, -3.40823308e-02, -7.42237503e-03, 3.63602750e-02, 1.38589321e-02},
        {4.80874553e-02, 2.76286285e-02, -2.52811778e-02, 1.03336677e-01, 7.27074817e-02},
        {2.96300352e-02, 2.13094428e-01, -6.52476326e-02, 1.69740826e-01, 1.24172285e-01}},

        {{ 3.53550702e-01, -2.07685959e-02, 1.33046702e-01, 1.85336713e-02, 2.92296708e-02},
        {-1.12322094e-02, 1.09358542e-02, 2.93575794e-01, 2.58530248e-02, 1.40343264e-01},
        {-3.05597391e-02, 1.83821723e-01, 1.36849284e-01, -8.09160806e-03, -9.97034535e-02},
        {-4.87125963e-02, 1.27498388e-01, 9.65563133e-02, 5.34686074e-02, -5.25585897e-02},
        {-1.34427086e-01, 2.44705066e-01, 2.56331444e-01, 2.12952644e-01, 5.85112236e-02}},

        {{-6.98715597e-02, -8.24801438e-03, 1.74108937e-01, -3.21122892e-02, 1.04989678e-01},
        {-2.42162868e-02, -1.28066503e-02, 4.44187447e-02, 7.26882070e-02, 1.23763487e-01},
        {-9.68609154e-02, 2.55755447e-02, -1.69180147e-02, 2.41060052e-02, -6.79532364e-02},
        {-6.80478811e-02, -9.78936329e-02, -1.46578799e-03, -1.40929818e-01, -8.99405405e-02},
        {-7.47013316e-02, -9.66392830e-02, 3.21342722e-02, 2.17806697e-02, -2.58763880e-02}},

        {{ 1.91623420e-01, 1.41922608e-01, 2.65954673e-01, 1.06687490e-02, -6.03088886e-02},
        {3.71006913e-02, -1.00509152e-02, 1.71236426e-01, 1.25680054e-02, -3.89284529e-02},
        {1.17597945e-01, -1.68050807e-02, 8.70032310e-02, -2.79715098e-02, -4.91682217e-02},
        {9.25316513e-02, -6.27164021e-02, -4.35927957e-02, 7.80023932e-02, -1.94152240e-02},
        {-1.22495078e-01, -6.13288768e-02, 1.16423652e-01, 3.30995858e-01, 1.42748207e-01}},

        {{ 8.66811633e-01, 5.87907434e-01, 1.31528556e-01, 1.25467956e-01, -2.58146990e-02},
        {2.40709767e-01, -1.54963881e-01, -1.90651000e-01, -4.58119325e-02, -2.49824747e-01},
        {2.15240240e-01, 5.43092787e-02, -4.71758023e-02, 6.25273064e-02, -2.21260667e-01},
        {7.12773353e-02, 5.55941463e-02, 1.77504625e-02, -1.07885510e-01, -2.36627162e-01},
        {-3.89446132e-02, -2.88099460e-02, 1.35691896e-01, -4.55532342e-01, -4.10932511e-01}},

        {{-1.39627635e-01, -1.85324728e-01, 1.14658196e-02, -1.93775799e-02, -5.37332073e-02},
        {-9.30984020e-02, -7.95365497e-02, -6.59578145e-02, 4.59495224e-02, 2.81461123e-02},
        {6.56818449e-02, -3.51809859e-02, 2.70290058e-02, -2.75589600e-02, -3.93177830e-02},
        {1.35072961e-01, 2.07046773e-02, 2.82584038e-02, -9.53459926e-03, 1.61647834e-02},
        {1.21101171e-01, 7.75021240e-02, -2.34312285e-02, 3.00151147e-02, -8.62423405e-02}} },


        {{{ 4.58951257e-02, -7.75416866e-02, -1.53664067e-01, 8.83766916e-03, -1.19867623e-01},
        {5.84556349e-02, -1.91848025e-01, -1.33572087e-01, -7.77320415e-02, -1.27963826e-01},
        {2.50647645e-02, -5.93428984e-02, -1.28467932e-01, 8.24127570e-02, -1.55483440e-01},
        {1.12535030e-01, -5.89848869e-03, 2.44645700e-02, 9.85625610e-02, -7.29808062e-02},
        {5.17858053e-03, -1.05124637e-01, -7.68532977e-02, 1.07711526e-02, -4.53791693e-02}},

        {{ 2.79637814e-01, 4.02780958e-02, 1.47120273e-02, 2.33561113e-01, 6.81105703e-02},
        {1.97878659e-01, -4.68202084e-02, -2.55075023e-02, 8.93581137e-02, -2.09295098e-02},
        {3.17497492e-01, -6.63463250e-02, 3.92382406e-02, -1.65252248e-04, -5.57919182e-02},
        {9.99808982e-02, -1.36250854e-01, -8.24694186e-02, -9.21092695e-04, -1.51730001e-01},
        {1.85210541e-01, 1.75690791e-03, -2.97297426e-02, 1.38975158e-01, 1.00806229e-01}},

        {{ 3.48523892e-02, -2.12719813e-02, -1.20746247e-01, 3.10495347e-02, 2.52998233e-01},
        {-5.82939275e-02, -8.46479088e-02, 2.03709807e-02, -4.58504073e-02, 5.84410280e-02},
        {-1.11076005e-01, -9.69016403e-02, -2.60382108e-02, -5.95723232e-03, -1.85123205e-01},
        {-1.33182600e-01, -1.36665061e-01, 2.49317270e-02, -8.95325616e-02, -2.35184401e-01},
        {-5.24329357e-02, -7.78794661e-02, -2.49318723e-02, 8.36935416e-02, -4.45559211e-02}},

        {{ 4.14923728e-02, -1.29123241e-01, -7.04858676e-02, 6.84311688e-02, -1.15017273e-01},
        {1.71613663e-01, -8.00273269e-02, 7.89540857e-02, 6.17279410e-02, -4.62424792e-02},
        {1.23949304e-01, 1.27031535e-01, 1.11031808e-01, 1.32227093e-01, 1.82582960e-02},
        {-5.57852313e-02, 2.21304707e-02, -5.64963445e-02, 3.89019139e-02, -1.40812501e-01},
        {-1.53553411e-01, -2.29086056e-01, -6.81142434e-02, -3.31254036e-04, 1.89452767e-02}},

        {{ 2.81264335e-01, -2.97467038e-02, -1.87820882e-01, -2.82631046e-03, -7.42657259e-02},
        {3.74099195e-01, 2.06654444e-01, -9.22502428e-02, -2.05545381e-01, -2.70109415e-01},
        {-6.64867312e-02, -7.62590691e-02, -6.09991252e-02, 8.93036500e-02, -3.75431687e-01},
        {-3.76813978e-01, -4.26705867e-01, -4.75865640e-02, -1.09388437e-02, -4.44515646e-01},
        {2.00532824e-02, -1.26732081e-01, 1.52105957e-01, 3.35723571e-02, -2.74483025e-01}},

        {{ 1.88572444e-02, -4.07966822e-02, -4.06580903e-02, -7.14853182e-02, -8.61420855e-02},
        {-5.85924415e-03, 7.16746598e-03, -7.93015435e-02, -4.13199188e-03, 5.31958602e-02},
        {-9.91467200e-03, 1.50922444e-02, 1.17284998e-01, 8.39116424e-02, 5.55191860e-02},
        {5.58158159e-02, -2.35088496e-03, 8.66958871e-02, 7.88775738e-03, 6.09220341e-02},
        {2.94255596e-02, 7.95040727e-02, 7.65112117e-02, 7.99556375e-02, 1.14698417e-01}} },


        {{{-1.99217975e-01, -1.65991575e-01, 1.37547627e-01, 6.88400492e-02, -9.45563987e-02},
        {-1.33196965e-01, -1.58701181e-01, 1.56319272e-02, -3.46655212e-02, -8.55793655e-02},
        {-2.31992975e-02, -9.76913571e-02, 6.95675090e-02, -2.11732462e-01, -6.14347830e-02},
        {3.62539999e-02, -1.28127694e-01, 3.18677910e-02, -1.60866529e-01, -6.12736642e-02},
        {-1.16863921e-01, 7.02386349e-02, 7.03234151e-02, -8.91887844e-02, 1.50848050e-02}},

        {{-3.57719123e-01, 1.78817153e-01, 3.96065712e-01, 2.60749012e-01, -1.30685046e-01},
        {1.80615503e-02, 1.34961620e-01, 1.48042604e-01, -8.43905434e-02, 1.76719919e-01},
        {4.80701141e-02, -1.49861034e-02, 8.36098865e-02, -1.79200470e-01, -7.60701597e-02},
        {-1.86126083e-01, -7.36999586e-02, 4.69610728e-02, -5.02818301e-02, 3.26974243e-02},
        {-1.69260889e-01, -5.98558560e-02, 2.18610875e-02, -3.28055210e-02, 2.46221498e-01}},

        {{ 1.88486919e-01, 2.44696259e-01, 1.83961838e-01, 3.56654823e-01, -1.63255110e-01},
        {2.01757401e-01, 2.65513211e-01, -2.29648184e-02, 1.03379376e-01, 3.88948083e-01},
        {9.82065424e-02, 5.94536774e-02, -5.37338145e-02, -1.67286098e-01, 2.39594489e-01},
        {2.53962111e-02, -6.55055791e-03, -2.62557030e-01, -6.25061691e-02, 1.95614323e-01},
        {6.90424293e-02, -2.06308872e-01, -2.94593781e-01, -9.21099931e-02, 2.88697351e-02}},

        {{ 8.66839662e-02, 2.35201225e-01, -6.17349371e-02, -3.68321002e-01, -1.76734269e-01},
        {1.52805140e-02, 6.07072338e-02, 1.16112292e-01, -2.82114953e-01, 9.70788375e-02},
        {9.20541361e-02, -8.39759782e-02, -6.53254017e-02, -2.54821450e-01, -9.14731622e-02},
        {1.71303689e-01, -1.08470783e-01, -1.61767930e-01, -1.56893268e-01, 2.14577448e-02},
        {1.83265418e-01, -3.34893316e-02, 3.92965749e-02, -2.04908118e-01, -1.71076991e-02}},

        {{-9.06308740e-02, -4.37316835e-01, -1.17012553e-01, 2.36419141e-01, 9.92927030e-02},
        {-3.86604309e-01, 5.69126047e-02, 2.67195493e-01, 1.38343304e-01, -1.81928828e-01},
        {-6.17362022e-01, -2.32562721e-01, 1.26390755e-01, 1.24807484e-01, 2.70149350e-01},
        {-5.97512662e-01, -3.47731709e-01, 3.63287069e-02, -2.20528245e-02, 4.28385526e-01},
        {-5.16642630e-01, -3.39066274e-02, 7.82781318e-02, -2.31922433e-01, 1.34443954e-01}},

        {{-2.43722081e-01, 6.40044436e-02, 1.09046929e-01, 6.13102540e-02, -3.12371682e-02},
        {-7.57649913e-02, -7.06770718e-02, 6.93502501e-02, 4.61196117e-02, 6.83419732e-03},
        {-2.19754763e-02, 7.22287968e-02, 2.53760889e-02, -5.57203703e-02, -1.87347718e-02},
        {4.08785641e-02, 6.05564415e-02, 3.69918458e-02, 5.38908923e-03, -1.56325214e-02},
        {9.52992812e-02, 1.69131652e-01, 3.66469510e-02, 1.82746798e-02, 7.81651437e-02}} },


        {{{-3.86725664e-02, -3.13372351e-02, -5.57607599e-02, -1.43313646e-01, -1.30345106e-01},
        {-4.15191539e-02, 1.03451423e-01, 1.38913870e-01, -4.62282002e-02, 4.45644930e-02},
        {-2.60593817e-02, 1.44584656e-01, 1.66588694e-01, -1.40453205e-01, -5.40848188e-02},
        {5.66418618e-02, 1.19784057e-01, -1.78276859e-02, -1.03608064e-01, 6.93722814e-02},
        {-1.70336906e-02, 3.01734582e-02, 1.03066586e-01, 1.14394436e-02, 7.24435523e-02}},

        {{-1.98681653e-01, -1.14822261e-01, -4.12893705e-02, -1.04567572e-01, -3.75632375e-01},
        {-1.72247905e-02, 7.88389668e-02, 3.39116782e-01, 1.67518412e-03, -8.43924284e-03},
        {4.34717871e-02, 1.10582322e-01, 3.63105446e-01, 1.88523218e-01, -9.17954147e-02},
        {-1.00003816e-01, 6.72758818e-02, 4.85407859e-01, 2.68287122e-01, -1.40739093e-02},
        {-1.23982541e-01, -1.74700499e-01, 3.26944202e-01, 3.87453943e-01, -2.14672878e-01}},

        {{-6.11892901e-02, -1.41756564e-01, -3.44259053e-01, -3.35044861e-01, -1.47788391e-01},
        {2.09261820e-01, 5.36837466e-02, -1.29394531e-01, -1.84196487e-01, -6.59736991e-02},
        {4.72381413e-02, 1.78410217e-01, -1.79377973e-01, 1.63084403e-01, 7.26660118e-02},
        {5.36048263e-02, 1.21141940e-01, -7.27385059e-02, 2.17505306e-01, 8.67843106e-02},
        {2.14114450e-02, 1.31323203e-01, 1.18771881e-01, 2.95298815e-01, 4.82629277e-02}},

        {{-1.28913894e-01, 1.75292678e-02, 1.02618575e-01, 5.30681275e-02, 1.11017846e-01},
        {1.32755369e-01, 1.06947809e-01, -1.62482855e-03, 2.64340341e-01, 5.93917146e-02},
        {6.08214997e-02, -2.70212889e-02, -1.12972818e-01, 3.31534803e-01, -6.33008406e-02},
        {9.75768715e-02, -1.35344908e-01, 1.19664371e-02, 4.30558830e-01, 2.23369896e-02},
        {6.16328884e-03, -6.28212616e-02, 2.34272704e-02, 4.03613240e-01, -3.24877203e-02}},

        {{-6.26214594e-03, 1.44721968e-02, 1.20666251e-01, -2.53890990e-03, 1.82843044e-01},
        {-4.23537605e-02, 6.19542897e-02, 1.67422608e-01, 1.54318929e-01, 3.50301355e-01},
        {-5.17443866e-02, 2.32866511e-01, 7.82594606e-02, -5.98683394e-02, 2.91122161e-02},
        {3.95680547e-01, -2.36394927e-01, 4.02856432e-02, -1.19951256e-01, -1.83422640e-01},
        {-4.23927680e-02, -2.00648725e-01, 1.89832956e-01, -1.66414440e-01, -3.32026243e-01}},

        {{-1.27132107e-02, 7.11227357e-02, 7.86709413e-02, -9.06803608e-02, -1.70997679e-01},
        {2.73091961e-02, 1.54474840e-01, 9.91458669e-02, -1.12263091e-01, -9.33203772e-02},
        {9.04902592e-02, 2.47257631e-02, -2.03698967e-02, -1.22770883e-01, -9.15376283e-03},
        {6.31712005e-03, 7.78007656e-02, -7.80797377e-02, -6.40795827e-02, -2.00359691e-02},
        {-3.03847175e-02, -9.35146436e-02, -5.90973161e-02, -1.22095775e-02, 2.48863306e-02}} },


        {{{-8.34752023e-02, 7.91990981e-02, 4.90317307e-02, 1.86195206e-02, 1.17418744e-01},
        {-1.39900029e-01, -1.17094658e-01, 7.22129131e-03, 2.20836625e-02, -1.65430289e-02},
        {3.13003547e-02, -6.13224767e-02, 1.80712059e-01, -4.87847477e-02, 1.82900921e-01},
        {5.17197922e-02, -9.74792689e-02, 1.26826959e-02, 1.00747356e-03, -1.62321590e-02},
        {1.83804974e-01, 1.70245796e-01, 2.15271398e-01, -4.00263071e-03, -1.21702798e-01}},

        {{-8.10257569e-02, 2.93085933e-01, 2.82542825e-01, -1.13050126e-01, 1.09348558e-01},
        {9.70611721e-02, 1.91096589e-01, 2.69328475e-01, 2.13807344e-01, 3.23240086e-03},
        {3.03411335e-01, 1.39045835e-01, 1.63856208e-01, 1.12694211e-01, 5.41182095e-03},
        {3.83357704e-01, 2.21426904e-01, 2.36670181e-01, 1.83708623e-01, 9.11412016e-02},
        {2.25905806e-01, 4.83496666e-01, 2.36013174e-01, -5.91798872e-02, -1.84356898e-01}},

        {{ 2.27416176e-02, -1.05143562e-02, 4.57814336e-02, 2.02928632e-01, 6.56646583e-03},
        {-1.67508096e-01, -5.36604114e-02, -2.69614756e-02, -9.40274298e-02, 1.45808563e-01},
        {-1.34962993e-02, -7.99337998e-02, 3.00631747e-02, 1.14852665e-02, 7.85717294e-02},
        {-3.06561980e-02, -5.75643070e-02, -1.53711634e-02, 1.63862612e-02, -2.46801615e-01},
        {-2.48066429e-02, -2.04406112e-01, -1.36969060e-01, -1.52776629e-01, 1.27585158e-01}},

        {{-5.06681129e-02, -8.32312480e-02, -6.42368570e-02, 4.20480147e-02, -7.29971752e-02},
        {-1.03003711e-01, 1.74118012e-01, 3.30811232e-01, 9.79054049e-02, 2.06122939e-02},
        {2.08856836e-01, 1.74036786e-01, 2.20392421e-02, 1.03445493e-01, -1.28532618e-01},
        {-8.66272226e-02, -7.83135593e-02, 7.90597964e-03, -2.00246945e-01, -7.23742247e-02},
        {-9.71365944e-02, -1.57067940e-01, -4.76579443e-02, -1.43995836e-01, -4.73331548e-02}},

        {{ 5.35903394e-01, -1.15336590e-01, -4.87014353e-02, -2.30783150e-01, -4.36259478e-01},
        {1.81599736e-01, 9.73292813e-02, -1.42757297e-01, -3.00372094e-01, -5.31269014e-01},
        {-3.83261979e-01, -2.51425982e-01, -1.70077652e-01, -2.80540705e-01, -6.56826317e-01},
        {5.04678153e-02, -4.50020552e-01, -3.73658985e-01, -3.19449455e-01, -4.30353791e-01},
        {1.95725963e-01, -6.48702905e-02, -5.19384325e-01, -3.20538461e-01, -4.91656899e-01}},

        {{-9.09616649e-02, -4.51249443e-02, 1.27262427e-02, -9.44297835e-02, 9.45717096e-02},
        {-1.22727387e-01, -3.08793336e-02, 2.24780273e-02, -7.70702735e-02, 8.02916810e-02},
        {2.50321347e-02, -1.28895731e-03, 5.18578663e-02, 4.68226112e-02, 5.55376410e-02},
        {-8.33707750e-02, -7.68363327e-02, 4.20508198e-02, -1.13318749e-01, -5.74539602e-02},
        {1.91995636e-01, 1.46989793e-01, 7.27956891e-02, -1.48361757e-01, -5.93884885e-02}} },


        {{{-4.13331129e-02, -2.38890834e-02, -1.18947163e-01, -7.72839412e-02, 1.51699364e-01},
        {1.38297528e-02, 3.10927164e-03, -1.26070142e-01, 4.00402881e-02, 9.04364977e-03},
        {1.05265357e-01, -1.12661771e-01, -5.92992343e-02, -1.86541174e-02, 7.22952336e-02},
        {-2.02274516e-01, -7.97788650e-02, 1.03578113e-01, 1.18788622e-01, -1.50356907e-03},
        {-1.65798679e-01, -1.41482845e-01, 1.63214982e-01, 9.05350000e-02, -3.66351791e-02}},

        {{-2.69949045e-02, -3.92018184e-02, -1.84354708e-01, 5.21395430e-02, 1.84958667e-01},
        {-8.28996301e-02, -1.03068806e-01, 4.24306914e-02, 6.62074983e-02, 8.57896879e-02},
        {1.09347790e-01, -1.15050860e-02, 1.25454038e-01, -5.28061613e-02, -6.99638352e-02},
        {-2.58951277e-01, 1.33941218e-01, 3.94320965e-01, 1.06072687e-01, -7.65440837e-02},
        {-2.92041183e-01, 9.00878534e-02, 4.13982607e-02, -1.28345147e-01, -5.13457991e-02}},

        {{ 2.78488602e-02, -1.31018922e-01, 1.03177940e-02, 2.77279437e-01, -3.43097299e-01},
        {1.39110237e-01, 7.49251544e-02, 2.73279529e-02, 7.83651620e-02, -5.37010562e-03},
        {1.39765382e-01, -1.45328408e-02, 1.25325426e-01, 1.00331999e-01, -1.41746759e-01},
        {8.91699046e-02, 4.52147536e-02, 1.59635812e-01, -4.43159789e-03, -1.06587894e-01},
        {1.92190960e-01, 1.07548051e-01, 2.09115535e-01, -4.13169302e-02, 4.56716940e-02}},

        {{ 5.96197974e-03, 9.15248040e-03, 3.23696248e-02, 1.51537910e-01, -6.60165474e-02},
        {6.25536889e-02, -7.90513470e-04, 1.09311827e-01, 5.45390099e-02, 1.07110865e-01},
        {-3.89917903e-02, -7.02148005e-02, 5.13167940e-02, -6.35980591e-02, -3.34009342e-02},
        {1.56460926e-01, 1.59523413e-02, 1.61303654e-01, -1.50002614e-01, 3.97942541e-03},
        {1.25324309e-01, 2.40848921e-02, 1.39119819e-01, -1.30329400e-01, 1.16230942e-01}},

        {{-3.11276108e-01, -2.68849313e-01, -4.28264022e-01, -1.55757919e-01, -2.67253686e-02},
        {-1.72039405e-01, -3.17271858e-01, -1.01058930e-01, -3.36854100e-01, -1.25756904e-01},
        {-7.37980753e-02, -1.04432158e-01, -3.11725996e-02, -1.72382727e-01, 5.18537834e-02},
        {-3.95352900e-01, 7.44552463e-02, 6.52486682e-02, 7.31651708e-02, 3.62371385e-01},
        {-4.17357624e-01, 1.15390375e-01, -6.62811007e-03, 1.20516308e-01, -8.74749273e-02}},

        {{ 4.65850383e-02, -1.18158631e-01, 5.98315857e-02, 2.24762186e-02, 6.26033098e-02},
        {-8.39630365e-02, 3.44289839e-02, 1.00568384e-01, 7.92843103e-02, 3.47854383e-02},
        {-1.01935625e-01, -1.65295914e-01, 3.58395837e-02, 1.25540152e-01, 1.59403965e-01},
        {-1.69012532e-01, -6.70611113e-02, 2.48348620e-02, 3.22404914e-02, 5.46620414e-02},
        {-7.17746019e-02, -8.29581544e-02, 5.19339778e-02, -7.80570507e-02, 3.69058945e-03}} } };





const float fullConnect1Weight[120][256] = { {-2.11368105e-03, -8.52177665e-02, 7.27622136e-02, 4.10313606e-02, 4.66794334e-02, -7.52059668e-02, 5.91222718e-02, -3.61495391e-02, 1.13030411e-01, -9.26934406e-02, 2.82772165e-02, -7.74306580e-02, 9.80174989e-02, -5.19108679e-03, 1.50571233e-02, 7.68842623e-02, 4.26463671e-02, 1.24824665e-01, -9.13680345e-02, 4.77682129e-02, -6.19498193e-02, -3.71429063e-02, -3.84139977e-02, 2.30461825e-02, 1.22987621e-01, -4.76606935e-02, -8.62434581e-02, -2.39206582e-01, -1.41733035e-01, -2.40788594e-01, -2.80683517e-01, 2.67676311e-03, 3.73176672e-02, 4.27631699e-02, 1.32161558e-01, -8.27526965e-04, -4.25662771e-02, 1.98292192e-02, 1.27772484e-02, 4.96537760e-02, -1.81344569e-01, 8.06940421e-02, 2.93982439e-02, -4.16322127e-02, -1.29940048e-01, -4.64263558e-02, -3.47603746e-02, -1.51727006e-01, -5.72082028e-02, 9.26483795e-02, 4.60918173e-02, 1.27029493e-01, 1.08786501e-01, 3.82209718e-02, -7.88715854e-02, 4.54346277e-02, -2.44000331e-02, 5.43883853e-02, 2.73974668e-02, -1.19090825e-01, -1.19234778e-01, 4.98224385e-02, -1.11680180e-01, -2.16729477e-01, -2.95896381e-02, -4.15938236e-02, -8.40129182e-02, 3.49537730e-02, -5.41155040e-02, -1.84407104e-02, 6.94381669e-02, -2.64394164e-01, -4.17337194e-02, -2.03565657e-02, 1.76791772e-01, -1.18835613e-01, 9.66442302e-02, 1.81718498e-01, 1.82844043e-01, -6.66010603e-02, -3.73914512e-03, -1.52178239e-02, 3.80862318e-02, -6.70284033e-02, -9.05945674e-02, -1.21491253e-01, 1.05345413e-01, -1.37385890e-01, 3.22359987e-02, -1.14692621e-01, 1.68905761e-02, 4.77265753e-02, -1.41309351e-01, -1.86899584e-02, -7.59376884e-02, 6.92165866e-02, -9.80860647e-03, 1.71173140e-01, 9.67718363e-02, 1.07145153e-01, -6.92957500e-03, 6.52144030e-02, 9.81494263e-02, -5.10769412e-02, 9.70223360e-03, 8.24252963e-02, 6.86188340e-02, -1.20609570e-02, 3.74640897e-02, -1.48120802e-03, 1.16773471e-01, -4.31528203e-02, 1.17562719e-01, -9.09657776e-02, -2.49165855e-02, 1.41466931e-01, 5.47057763e-02, 4.49418165e-02, 2.55219303e-02, 1.57521553e-02, 1.16789468e-01, -2.51611434e-02, 2.86597405e-02, 1.63213655e-01, 1.25862002e-01, 2.19110511e-02, -4.33068350e-02, 8.79159272e-02, 3.75200026e-02, 1.25996202e-01, 2.89581679e-02, 2.69832432e-01, 4.25589876e-03, 1.18558787e-01, -2.00240221e-02, 6.05906136e-02, 3.77303176e-03, 1.07230283e-01, -2.41553411e-02, -2.89303642e-02, -1.88600153e-01, 1.45659177e-02, -4.38959114e-02, 6.35058358e-02, 1.45423725e-01, -3.27511579e-02, 4.22171652e-02, -6.78715110e-02, -9.78430510e-02, 1.86816119e-02, 6.44622594e-02, 4.39023748e-02, 9.08327475e-02, 7.57628120e-03, 9.79872886e-03, -5.29587604e-02, -7.22710714e-02, 1.22997127e-01, 8.94596353e-02, -2.14773417e-01, -3.49602140e-02, 2.00245708e-01, -1.00536300e-02, -1.89694837e-01, -7.94828981e-02, 1.32831573e-01, 1.69102892e-01, -3.77065688e-02, 6.16824105e-02, -6.29523420e-04, 5.50583415e-02, -3.97569574e-02, -1.50971003e-02, -2.64175329e-02, 1.03971235e-01, -1.11940689e-01, 8.46085176e-02, 2.34770309e-02, -3.80272828e-02, 4.04069982e-02, 1.61993969e-02, 8.58446062e-02, -2.59282943e-02, 2.34040618e-02, 6.62669986e-02, -2.95876730e-02, 4.42580832e-03, -2.08675005e-02, 4.15639021e-02, 5.33834212e-02, 1.31340027e-01, 7.18316883e-02, -1.55233569e-03, 5.16015850e-02, -7.93258324e-02, -1.54778153e-01, -7.56972954e-02, 3.94972898e-02, -2.82424856e-02, 6.35086596e-02, -7.16237202e-02, 8.25130660e-03, 1.93827629e-01, 6.30215257e-02, 6.84364047e-03, 3.59945595e-02, 1.36894867e-01, 1.04433700e-01, -3.86557681e-03, -2.00300906e-02, 8.38497207e-02, 2.89671533e-02, -1.04120485e-02, 1.05182186e-01, 1.09777324e-01, -8.34586173e-02, -7.89661631e-02, 1.87486596e-02, -2.21240632e-02, -2.44447999e-02, -1.39642864e-01, -3.30218598e-02, 3.22329998e-02, -5.57440780e-02, 1.00282114e-02, 1.38920888e-01, 8.64804909e-02, 1.84540227e-01, 4.49953414e-02, 2.52122134e-02, 1.60677224e-01, 2.00822100e-01, -8.87519047e-02, -2.14185528e-02, 5.54841422e-02, 1.54157370e-01, -1.56040281e-01, -6.40923604e-02, -4.74695042e-02, -1.65130630e-01, -5.96355349e-02, -3.77198048e-02, -3.67238931e-02, 4.66960818e-02, 4.14241999e-02, 6.63936436e-02, 7.68756792e-02, 1.18276775e-01, -9.17092059e-03, 8.95647779e-02, 1.07516333e-01, -1.78654026e-02, -6.48092479e-02, 3.56054455e-02, 7.20494390e-02, -2.25436181e-01},
   {2.31206223e-01, 1.87911153e-01, 4.43423875e-02, -1.11240380e-01, -6.40078187e-02, -1.25998063e-02, 2.52407547e-02, -1.29321113e-01, 7.27936327e-02, -7.28544071e-02, 1.20628975e-01, -1.58300847e-01, 1.53216526e-01, 7.78467208e-02, 4.12472449e-02, 1.07079379e-01, 5.29890787e-03, 1.32036321e-02, 9.00174901e-02, 2.05850869e-01, -9.13287327e-02, -7.99823105e-02, 6.37685061e-02, 2.13171337e-02, 3.73837538e-02, -1.46258742e-01, 4.86333631e-02, -3.19496721e-01, -1.80542227e-02, -2.52572089e-01, -2.30945602e-01, -2.08957121e-01, -1.89367924e-02, 1.00685023e-01, -7.20163211e-02, -3.49860370e-01, 2.80265003e-01, 1.27268361e-03, -7.92060867e-02, -8.27214681e-03, -4.17473391e-02, 1.19552381e-01, 4.73658787e-03, -1.58993155e-02, 6.39144555e-02, -7.83037469e-02, -1.60282776e-02, 7.03023076e-02, -4.75993119e-02, -5.30700982e-02, 4.24451530e-02, 8.29159319e-02, -9.76485685e-02, -3.19889858e-02, -1.20096341e-01, 3.46258916e-02, 2.71244347e-02, -1.15351193e-02, 7.21639302e-03, 1.30582228e-01, 5.61994091e-02, 5.38281798e-02, -6.62739715e-03, 7.52077624e-02, 8.65434110e-03, -7.42682293e-02, -5.14540933e-02, -8.92796740e-02, 5.72163053e-02, -2.73940004e-02, 5.99631816e-02, 1.49621172e-02, 9.43059400e-02, 2.23273374e-02, 2.77989749e-02, -8.53626952e-02, 1.19021714e-01, -3.05667855e-02, -7.92697072e-02, 7.88199753e-02, 6.40826449e-02, 2.15312824e-01, -1.04176834e-01, -2.43767828e-01, 1.64024919e-01, 7.41142705e-02, 2.86687482e-02, -1.02671243e-01, 2.11906303e-02, -7.48192295e-02, 2.22078636e-02, -6.12581521e-02, 1.75504744e-01, -1.56159297e-01, 1.49100171e-02, 2.12742928e-02, -1.21724248e-01, -1.27884746e-01, -4.16963063e-02, 8.19444731e-02, -5.46474978e-02, 4.06205356e-02, 2.89120059e-02, 3.97007465e-02, 3.66224609e-02, -2.98625305e-02, -1.14471670e-02, 8.61445740e-02, -1.02592230e-01, 1.50958046e-01, 3.19197513e-02, 1.19249329e-01, -1.32466584e-01, 5.05724549e-02, 7.15552270e-02, 3.48568484e-02, -2.60499865e-02, -6.29341677e-02, 1.22772418e-01, -1.12635258e-03, 4.03101929e-02, -3.65904272e-02, 1.28028899e-01, 1.05957620e-01, 1.29169226e-01, -4.76634465e-02, 1.24637999e-01, 1.97066795e-02, -7.27241784e-02, -7.24387392e-02, 4.40593734e-02, 1.76671848e-01, 1.00166343e-01, -4.40738238e-02, 3.27478126e-02, -4.50146720e-02, 2.73615140e-02, 2.07592752e-02, 4.30608280e-02, 7.70175606e-02, 7.91342929e-02, 2.58979537e-02, 6.47118166e-02, 1.91840529e-01, -2.35089082e-02, 3.60471681e-02, -3.44774351e-02, 5.45851700e-02, 3.23986188e-02, -4.04462703e-02, 1.34794647e-02, -7.88786262e-03, 3.06787509e-02, -3.63289006e-02, 1.34683717e-02, -4.53101136e-02, 1.20615438e-02, 2.86150817e-02, 3.92321311e-02, 6.11688346e-02, 4.30081300e-02, -1.08519010e-01, -1.28569558e-01, 5.65955192e-02, 1.20931447e-01, 7.68573135e-02, -9.40396730e-03, 1.90145820e-01, 1.14775663e-02, -7.27182860e-03, -9.16419625e-02, -7.52925873e-02, 2.01425049e-02, 3.31175998e-02, -3.56714159e-01, 9.46078375e-02, 5.58165349e-02, 5.78626618e-02, -5.60265593e-03, 1.80659860e-01, -6.08845204e-02, 1.07743539e-01, 6.58301786e-02, 2.41691861e-02, -3.13745625e-02, -3.93332243e-02, 6.11675456e-02, 1.33369982e-01, 3.40781584e-02, 3.74195389e-02, 2.95465123e-02, 8.38346779e-02, -2.17661634e-02, -8.36727917e-02, 1.57574773e-01, -5.49678095e-02, -8.75668973e-02, -2.86965854e-02, 1.00202017e-01, 6.09401688e-02, -9.42415446e-02, -1.20510109e-01, 2.66556311e-02, -4.38897461e-02, -4.49660467e-03, -7.52313361e-02, 2.01243907e-01, 2.19693109e-02, 1.09349541e-01, 9.37276483e-02, -4.55334000e-02, -6.50890693e-02, 4.12048548e-02, 3.24356668e-02, 4.88546528e-02, -1.39167875e-01, -3.04001868e-02, -4.17676196e-02, -1.74670264e-01, -1.31775662e-01, 7.27672353e-02, -9.06431824e-02, 6.96316808e-02, 5.28835580e-02, 1.37432516e-01, 9.40511376e-03, -2.75908541e-02, 6.03449233e-02, 6.59944043e-02, 3.83122801e-03, 3.95132648e-03, 8.68703723e-02, 4.41386476e-02, -4.37127845e-03, -3.18797864e-02, 5.00919968e-02, 6.98597357e-02, -7.71000907e-02, -5.93685582e-02, 1.73285883e-02, 4.19190861e-02, -3.03496029e-02, -1.49405599e-01, 2.05253623e-02, -2.33865455e-02, -2.16946006e-03, 2.81233005e-02, -5.53524494e-02, -8.23124661e-04, 4.27087806e-02, -2.29517873e-02, -1.86245572e-02, -1.17002517e-01, 8.37266743e-02, -1.94977894e-02, 7.37464949e-02},
   {6.34365678e-02, -9.64194760e-02, 4.12464663e-02, 1.26615420e-01, -2.14788667e-03, -6.39406741e-02, 5.59321418e-02, 2.25772543e-04, 1.07416939e-02, 9.45039317e-02, 1.78453662e-02, -3.31017971e-02, -1.66391358e-02, 8.82070884e-02, 9.57310796e-02, -8.83775204e-03, 8.47671852e-02, -4.88192253e-02, -7.58194625e-02, 1.29866183e-01, -2.38495301e-02, -2.91473363e-02, 5.56705147e-02, 1.41749904e-01, 6.93242950e-03, -1.57950446e-03, -1.04857773e-01, 2.26372629e-01, -2.10457258e-02, -3.39392573e-02, -1.99230745e-01, -5.38886851e-03, 8.68498981e-02, -3.61947231e-02, 6.86367676e-02, -5.08635789e-02, 8.18807632e-02, 1.58385590e-01, 3.03719733e-02, -1.03133600e-02, 3.35610518e-03, 8.33484232e-02, -1.75215527e-02, -3.91811356e-02, 5.52036203e-02, -5.44460230e-02, -8.12027454e-02, -1.55458719e-01, -5.06291278e-02, 1.27621204e-01, 6.00952357e-02, 5.33356480e-02, -8.98649767e-02, -2.93092523e-02, -4.95984070e-02, -5.11445887e-02, -1.58378616e-01, -4.31652516e-02, -2.37306990e-02, -2.74280589e-02, -1.27988830e-01, -5.70237823e-02, 1.19129375e-01, 7.08485246e-02, -1.53177783e-01, 7.01207891e-02, -6.96525676e-03, -9.71977711e-02, -8.88381898e-02, -5.91176078e-02, -2.87174364e-03, -1.61469266e-01, 2.37738667e-03, 1.44005924e-01, 2.26263925e-02, -1.59653887e-01, 1.82326064e-01, 1.72482789e-01, -1.18913855e-02, -1.50222003e-01, -3.76126617e-02, 1.50568292e-01, 1.50997723e-02, -9.77283120e-02, 9.19991210e-02, 5.48688099e-02, 2.01121211e-01, -5.10275029e-02, -7.24636614e-02, -1.08536724e-02, 1.05503194e-01, 1.47393038e-02, -6.85327947e-02, 5.05510755e-02, 9.63153616e-02, -2.17995029e-02, -4.79880832e-02, -1.02652358e-02, 1.55951185e-02, -6.15441427e-02, -7.36742467e-02, 5.02362773e-02, 4.92764562e-02, 1.97593737e-02, -8.78465548e-03, 3.46853584e-02, 1.03575595e-01, 5.37779555e-02, 7.43048489e-02, 5.29806595e-03, 7.72784501e-02, -4.36306223e-02, -3.76652218e-02, -3.91831324e-02, -4.98729572e-02, -5.10933846e-02, 2.35898588e-02, -3.41234282e-02, 3.68220434e-02, 5.55298701e-02, 9.87636447e-02, -2.51683593e-02, 1.10082410e-01, 1.86110213e-02, 4.63444330e-02, 9.83173102e-02, 1.50285304e-01, -3.29225697e-02, -8.78355093e-03, 8.88516307e-02, -4.34726477e-03, 1.16367891e-01, 8.58797804e-02, 1.91965625e-01, 3.73426042e-02, 1.38953235e-02, -1.88308433e-02, 1.19015612e-01, 1.62892428e-03, -3.63036357e-02, -7.72824958e-02, 7.14149997e-02, -3.13147679e-02, 6.38633827e-03, 1.41808957e-01, -1.23634234e-01, -6.64734170e-02, -5.57910465e-03, -6.84371102e-04, -1.13794081e-01, -1.34847276e-02, -2.25820560e-02, 2.72132754e-02, -1.89054474e-01, -2.88675949e-02, 6.74939230e-02, 7.43923262e-02, -4.01752591e-01, 1.23079894e-02, -9.81055796e-02, 9.32121724e-02, 1.72267947e-02, -1.20541975e-01, -1.31307274e-01, -4.46985587e-02, 7.90373459e-02, 6.77219182e-02, 8.81745890e-02, 7.91684687e-02, -5.27666509e-02, 1.06138624e-01, -8.07115715e-03, 8.71200934e-02, -1.99758500e-01, -1.26760989e-01, -1.22125350e-01, 3.22727603e-03, -2.18017343e-02, -6.93377182e-02, -1.11742020e-01, 2.31254771e-02, 6.54219463e-02, 9.52351317e-02, -4.58083004e-02, 4.60017566e-03, 5.04962169e-02, 7.00254589e-02, -4.47765850e-02, 1.18201785e-01, 6.23759031e-02, 9.10839289e-02, -4.41787839e-02, 1.51994135e-02, 9.28993225e-02, -1.88521668e-01, -2.12434590e-01, -3.61352749e-02, 8.73078126e-03, -3.31299864e-02, 7.72916228e-02, -7.94451833e-02, 2.58010216e-02, 2.95340233e-02, 3.66971791e-02, -5.52375466e-02, 8.80240202e-02, 1.42474771e-02, 1.39537215e-01, 1.81218207e-01, 4.18253578e-02, 1.39561430e-01, 3.64181958e-02, -5.58188967e-02, -2.79764086e-02, 7.89525732e-02, -1.77663803e-01, -2.30979305e-02, -1.01086281e-01, -1.09621130e-01, -5.01316302e-02, 7.50231789e-03, -1.68134391e-01, -2.98403930e-02, 6.48483932e-02, 4.44912426e-02, 1.74050957e-01, 4.68112342e-03, 3.83078353e-03, -2.15501487e-02, 9.47357938e-02, 1.60861276e-02, 1.60246417e-01, 2.33939029e-02, 2.66032014e-02, -3.31043638e-02, 1.24490850e-01, -6.92227632e-02, 1.69229656e-02, -2.75099389e-02, -2.13627934e-01, 5.54058999e-02, -8.27189982e-02, -4.45888042e-02, -1.59487337e-01, -5.40327688e-04, 1.67779714e-01, 2.12926324e-02, -7.82334283e-02, 3.25721316e-02, -5.94258867e-02, -1.26019428e-02, -1.30458042e-01, -9.89688560e-02, -6.79607689e-02, -2.17837989e-02, 1.37067167e-02},
   {1.13356210e-01, 1.05181009e-01, 7.06502572e-02, 1.38822436e-01, 1.07100792e-01, 6.77689835e-02, 1.80602800e-02, -2.86897570e-02, -1.07777879e-01, 2.14212947e-02, -1.20342493e-01, 3.48576307e-02, -5.28190993e-02, -2.71059275e-02, -7.66685829e-02, -1.15631185e-01, 5.43699525e-02, -2.30893530e-02, 3.48612405e-02, -1.30473375e-01, -4.85738292e-02, 2.49564480e-02, 7.45105222e-02, -1.34664267e-01, -1.41661568e-02, -1.32465139e-01, -1.03002526e-01, -2.97874689e-01, -8.71789232e-02, 1.87838286e-01, 9.36172903e-02, 1.49710737e-02, -1.08989395e-01, -3.66844162e-02, -7.41722137e-02, -3.19722705e-02, -6.75435066e-02, 1.16220731e-02, 5.01864869e-03, -3.72416191e-02, 4.44682688e-02, 4.39772271e-02, 6.50689751e-02, -1.34940697e-02, 2.04884604e-01, 1.62222773e-01, 2.97579281e-02, -4.42197211e-02, -2.01848708e-02, -2.01350525e-02, -2.18703784e-02, -1.89936653e-01, -1.16446145e-01, -3.47323008e-02, 6.81810156e-02, -8.39333013e-02, -7.08297640e-02, -1.26169607e-01, 1.68052912e-02, -1.19857535e-01, -9.67839360e-03, 2.31810417e-02, 2.25304604e-01, 1.76602751e-01, -1.17964894e-01, -1.26350865e-01, 9.83094797e-02, 9.08873305e-02, 1.17171191e-01, 4.75276075e-02, 5.57967753e-04, 4.87691239e-02, -6.22464120e-02, -1.61592409e-01, -1.52879730e-01, 3.32741276e-03, -3.18472721e-02, 3.10200863e-02, -4.94134799e-02, 3.19934636e-02, -1.23180859e-02, -1.67004019e-01, -1.76865014e-03, 1.22127332e-01, 1.14322603e-01, 1.07837565e-01, -1.61230359e-02, 2.13409550e-02, 2.54616681e-02, -3.82533856e-02, -9.73812118e-03, 1.64963938e-02, 4.10960950e-02, 1.06881797e-01, 8.44502151e-02, -9.45076197e-02, -6.19647540e-02, 6.27024099e-02, 1.27240494e-01, -7.41666241e-04, -8.62517878e-02, 3.57690528e-02, 5.52468449e-02, 5.43283522e-02, -1.56983078e-01, 1.88605767e-02, -1.25684915e-02, 1.64943319e-02, 5.79362325e-02, -1.40300632e-01, -7.01436326e-02, -7.82884732e-02, 1.96340289e-02, 4.46235761e-02, -5.34585044e-02, -1.20733328e-01, 2.14266218e-02, -3.94568592e-02, -7.41066039e-02, -4.17046025e-02, -2.80987043e-02, -3.24433893e-02, -7.55935684e-02, 3.55655588e-02, 2.76087206e-02, 7.91738182e-02, 2.86617130e-02, 8.78381431e-02, -1.58363096e-02, 9.18261036e-02, -1.64718162e-02, -3.70527878e-02, -3.78640629e-02, 3.19923311e-02, 1.60451932e-03, -7.73381889e-02, 2.34051887e-02, -1.49298459e-01, 9.88335069e-03, -9.91400331e-02, 1.56368569e-01, 1.06469467e-01, 5.80526702e-02, -2.61095464e-01, 4.85423841e-02, 8.88410732e-02, -2.27505833e-01, -1.99488029e-01, 1.56900790e-02, 1.40206233e-01, -5.42753236e-03, 7.98982903e-02, 2.58075204e-02, 1.43699870e-01, -2.53843293e-02, 6.44053817e-02, 1.98078007e-01, -7.74686486e-02, -2.23267097e-02, 2.08853617e-01, -5.74486591e-02, -2.64468938e-02, -1.88583672e-01, -1.91711441e-01, -4.16889936e-02, 1.35090336e-01, 1.28652722e-01, -2.86061857e-02, -2.28300467e-02, -3.39678526e-02, 8.88215937e-03, 5.08644544e-02, -5.41989654e-02, -2.84463391e-02, 1.34138122e-01, 2.05900520e-01, -8.73235390e-02, -1.45995365e-02, 3.76490988e-02, 4.41870503e-02, 4.33754176e-03, 1.20636905e-02, -8.66288692e-03, -4.42974716e-02, 2.00109091e-02, -1.04345614e-02, -5.71498945e-02, -4.75305766e-02, -6.58692420e-02, 1.50000816e-02, -1.16478996e-02, 2.57678386e-02, 1.06625490e-01, 1.40149549e-01, 2.34943131e-04, -1.22082867e-01, 1.47461995e-01, -5.09457290e-02, 3.59128714e-02, -1.06089599e-01, 1.25600442e-01, 3.82587910e-02, 2.98524760e-02, -4.29910161e-02, 1.26333339e-02, 1.92292668e-02, -9.23187956e-02, 1.73933655e-02, 1.51336212e-02, 6.67398854e-04, 4.43294384e-02, 2.17127930e-02, -1.16635719e-02, 4.31236438e-03, 1.11862225e-02, -9.04707558e-05, 2.16555782e-02, -6.86392374e-03, 5.47818691e-02, 5.83444862e-03, 1.84980277e-02, 5.52888624e-02, -1.06542386e-01, 7.77227655e-02, -7.90826231e-02, 9.83776897e-02, -2.46123280e-02, -1.29476404e-02, -1.62456948e-02, 1.72285996e-02, 4.62015755e-02, 3.84785645e-02, 3.30606364e-02, -1.15697853e-01, -2.68598925e-02, -1.13331322e-02, 4.72741984e-02, 1.81687484e-03, -7.41795227e-02, -1.09133452e-01, 1.02680087e-01, 8.95453766e-02, -1.36555821e-01, -1.55479640e-01, 3.78403589e-02, 1.65131055e-02, 4.49306108e-02, -8.23266506e-02, -4.93420288e-02, -7.77275711e-02, 5.57978600e-02, -1.02513373e-01, -9.61569920e-02, -1.43086568e-01, 6.87763840e-02, 1.97425172e-01},
   {2.19655171e-01, 1.16371140e-01, -9.94725432e-03, 4.44787480e-02, -1.32935837e-01, -1.18075721e-01, 3.81276049e-02, 7.54599869e-02, -9.36659798e-02, -6.76348060e-02, 3.63574587e-02, 1.31803295e-02, -3.21059525e-02, 3.20681557e-02, -3.51163954e-03, 5.40456250e-02, -2.11501017e-01, -1.15185142e-01, -9.33975503e-02, 4.34795395e-02, -2.10292980e-01, -3.74875553e-02, -1.75345749e-01, -9.78714898e-02, -9.79233384e-02, 6.81822523e-02, -2.15069447e-02, 1.30144798e-03, -2.91434973e-01, -1.38553128e-01, -4.33170870e-02, -1.76857915e-02, 1.35626227e-01, 9.77829993e-02, -6.75405487e-02, 3.85059677e-02, -2.38176286e-02, 3.85612808e-02, -5.42556159e-02, 1.55132160e-01, -3.10501959e-02, 7.02689290e-02, 2.70004161e-02, 4.77984473e-02, -1.23336697e-02, 5.52399121e-02, -7.78886080e-02, 5.54019818e-03, 1.75285980e-01, 5.92526868e-02, -1.01252692e-02, -1.57940596e-01, 5.36617562e-02, 1.04229398e-01, -3.90266217e-02, -9.53005031e-02, 1.71313193e-02, 2.54559517e-02, -4.92255948e-02, -9.23687071e-02, -1.18843734e-01, -1.14906088e-01, -6.57679513e-02, -8.86329785e-02, -3.34847122e-02, -1.79710612e-02, -9.66499969e-02, 7.13126436e-02, -1.43665716e-01, 8.74619335e-02, 1.03822373e-01, -8.06773454e-02, -9.09893885e-02, 1.53746828e-01, 2.73287028e-01, -2.76268809e-03, -1.30030930e-01, 1.21420003e-01, 1.66094035e-01, -4.22196202e-02, 7.50061646e-02, 1.58755377e-01, -1.13969877e-01, 7.82660022e-02, -1.05060361e-01, 4.74895127e-02, 1.57686919e-02, 2.60604005e-02, -2.81510632e-02, 8.65014493e-02, -6.70958906e-02, 6.14216225e-03, -9.78152547e-03, 1.23485282e-01, -2.38520190e-01, 1.89480573e-01, 1.14522696e-01, 1.43901736e-01, 4.59395833e-02, -4.92263818e-03, 1.90721790e-03, 4.52831835e-02, -5.71756922e-02, -1.62726626e-01, 6.69062361e-02, 2.47464553e-02, 2.22996715e-02, 1.79793444e-02, -7.80636966e-02, 7.53396228e-02, 5.90830743e-02, 1.85096879e-02, 7.24573433e-02, 8.08093231e-03, 7.70448372e-02, 1.34923041e-01, -8.92019048e-02, 3.79600525e-02, -7.52050653e-02, -4.21131067e-02, 8.65776613e-02, 3.78357805e-02, 8.30930993e-02, -6.68872595e-02, -1.33394927e-01, 2.23231725e-02, 5.41209430e-02, -1.44735053e-01, -1.47604048e-01, -1.26269832e-02, -1.09930811e-02, -8.99812393e-03, -2.91209668e-02, -2.95430049e-02, -6.33104593e-02, -6.00913204e-02, -1.16369620e-01, 6.03900552e-02, -1.25671476e-01, 2.41607893e-02, -1.40105382e-01, -6.57799095e-02, -1.39596403e-01, -2.00189486e-01, 5.87443188e-02, -2.49402225e-01, 2.72450056e-02, 4.48126607e-02, -5.53117618e-02, -7.16885850e-02, 5.79467751e-02, 7.84668177e-02, -8.96322206e-02, 2.02140640e-02, 1.34681724e-02, -5.64784855e-02, 1.89918317e-02, 5.84482141e-02, 1.55535951e-01, -6.93321452e-02, 5.05553968e-02, -9.36208442e-02, -5.84513061e-02, -4.03217077e-02, -5.12812175e-02, 4.01951410e-02, 1.39580891e-01, -2.38100439e-02, 1.12890117e-02, 1.16058841e-01, 1.94213286e-01, -1.12573281e-02, 1.56825464e-02, -9.08745266e-03, 6.43035322e-02, 7.41936907e-04, 1.57553285e-01, 8.84900242e-03, 2.72502769e-02, -4.80347425e-02, 5.64686023e-02, 7.08488282e-03, -4.49045794e-03, -6.90033101e-03, -7.16654584e-02, -2.65341029e-02, 5.23252524e-02, -5.59802307e-03, -1.20504521e-01, 2.63116285e-02, 5.25703765e-02, 1.93208177e-02, 4.47700694e-02, -1.05883099e-01, -1.74418062e-01, -4.70224507e-02, -4.62051928e-02, 4.23193201e-02, -1.52126744e-01, 9.39670876e-02, -7.12072179e-02, -3.92106436e-02, -5.85879646e-02, 4.36730906e-02, -2.73903646e-03, -8.71027261e-02, -7.66334832e-02, -4.74930480e-02, 1.48437932e-01, 1.32221058e-01, 2.06699548e-03, 9.97245610e-02, 2.03646030e-02, 1.38165250e-01, 2.38423739e-02, -8.04252252e-02, -8.37728754e-02, 5.00955246e-02, 9.98031534e-03, -7.80489668e-02, -2.17049904e-02, 1.05981417e-01, 1.20889107e-02, -4.11403738e-03, 1.56021982e-01, 6.90297410e-03, 1.73713174e-02, 1.49668828e-02, -1.38990610e-04, 1.05202183e-01, 6.06043711e-02, 6.78572357e-02, -5.26633151e-02, 6.02005720e-02, 4.93678376e-02, 1.21910490e-01, -1.40490690e-02, 1.48720220e-01, 8.58808756e-02, -2.89108567e-02, 3.30655649e-02, -1.54428974e-01, -2.30945572e-02, 1.62696272e-01, 9.25750844e-03, -5.94073348e-02, -4.70049120e-02, 1.70867398e-01, 9.09200385e-02, 3.20604295e-02, -7.33230561e-02, 9.07344148e-02, 1.75892383e-01, 1.15490474e-01, -1.55914379e-02, -9.58076045e-02},
   {3.31777483e-02, -2.74098739e-02, 8.37544166e-03, -4.72063050e-02, -3.89631279e-02, -4.42432389e-02, 4.08047624e-02, -6.98240921e-02, -3.73808742e-02, -1.26224691e-02, -3.65035571e-02, 1.73308086e-02, 3.92265298e-04, -3.89526039e-02, 8.10209010e-03, 5.75396465e-03, -5.03602400e-02, -4.02363092e-02, -1.26290396e-02, 2.61107609e-02, 6.60280138e-03, 6.24420941e-02, -4.35724705e-02, 4.27006930e-02, 3.06248069e-02, 3.78648117e-02, 4.99489456e-02, 5.47070131e-02, 4.71295230e-02, 4.55162153e-02, -4.34438214e-02, -2.52526700e-02, -4.57193404e-02, -8.13613925e-03, -3.06199398e-02, -4.97510806e-02, -1.19956061e-02, 4.31802757e-02, 4.84520011e-02, -6.88052773e-02, -2.80217212e-02, -3.59067395e-02, 1.98736531e-03, -3.09736449e-02, -2.81743146e-02, -5.27092218e-02, -7.71754980e-02, 1.59021504e-02, -4.01470698e-02, 2.64921114e-02, 9.76717798e-04, -5.19653372e-02, -4.96042147e-02, 1.88258253e-02, -3.16900946e-02, -3.83696407e-02, 3.37152630e-02, 3.53394859e-02, 1.82352941e-02, -8.85569118e-03, 8.13014922e-04, -3.88708375e-02, -4.39453647e-02, 2.23094355e-02, -6.66732043e-02, -4.37588058e-02, -4.53965962e-02, -5.46385758e-02, 6.20095618e-03, 1.64015871e-02, 5.70140705e-02, -4.32106182e-02, -1.99710065e-03, -5.29288277e-02, 5.33914194e-02, -3.72219831e-02, 2.80947294e-02, -3.73483971e-02, -1.86239416e-03, 4.52236980e-02, -4.68450412e-02, 3.77351828e-02, 1.51548777e-02, -5.66170961e-02, -8.50275252e-03, 7.28951674e-03, -4.49585803e-02, -7.33327027e-03, -5.09186164e-02, -5.10946475e-02, -3.16752261e-03, 2.26904210e-02, -1.23545881e-02, 2.31306367e-02, 5.99853359e-02, 1.66487079e-02, -1.99173894e-02, -5.30583709e-02, 3.58537845e-02, -8.16144422e-02, 2.05841418e-02, 4.25219834e-02, -2.81969551e-02, -3.62350978e-02, 8.19025189e-03, -1.03640947e-02, -5.03343269e-02, 1.93761773e-02, -1.64229202e-03, -2.16757599e-02, -1.74302123e-02, 1.78660750e-02, 1.24606155e-02, -1.53776854e-02, 2.97968164e-02, -6.14070185e-02, -1.42206512e-02, 8.14353302e-03, 2.85218842e-02, 1.87494010e-02, 4.30704504e-02, 3.15512121e-02, -9.01412393e-04, 2.72392798e-02, 1.99020728e-02, -1.67099591e-02, -6.47914186e-02, -2.77873129e-02, -3.05237006e-02, 3.25375125e-02, -4.88165021e-02, -7.46541172e-02, -1.89829282e-02, -2.88648866e-02, 1.43318800e-02, -4.69032601e-02, -3.12895067e-02, -3.10830586e-02, 1.55141922e-02, 1.31532513e-02, 1.28094312e-02, -2.71500032e-02, -2.47442862e-04, -5.30477660e-03, -2.41235178e-02, -2.89725848e-02, 3.46968248e-02, 1.27454577e-02, 3.94846313e-02, -4.25457805e-02, -2.85514146e-02, 3.10904756e-02, -3.50569487e-02, 8.72238353e-03, 4.23212498e-02, -5.00172824e-02, 1.65726691e-02, -7.77754039e-02, -7.11445361e-02, -3.24689597e-03, -3.17501696e-03, -4.23018774e-03, -6.78992271e-02, -7.00624241e-03, 1.76452491e-02, -5.03756404e-02, -2.25296635e-02, -4.48028781e-02, -3.30792293e-02, -4.09928001e-02, -9.27760484e-05, -4.34208661e-02, 2.93143503e-02, -1.96695502e-04, -5.80579899e-02, -8.10519829e-02, 3.66081633e-02, 5.84421773e-03, -4.48018610e-02, -1.03934780e-02, 4.91764247e-02, 5.61061455e-03, -4.17469367e-02, -3.25224847e-02, -3.48160677e-02, -1.95395518e-02, 4.26488519e-02, 2.99823005e-02, 1.08018694e-02, -2.34273672e-02, 5.77657809e-03, -7.32656792e-02, -3.35788801e-02, 1.35617403e-04, -1.01747736e-02, -4.53734398e-03, 3.41714546e-02, -4.77180742e-02, -6.07322901e-02, -7.61867166e-02, 3.69411148e-02, -6.61851000e-03, 2.81699542e-02, -5.21544591e-02, 2.02198941e-02, -1.12619465e-02, -5.34604229e-02, -1.24977650e-02, 2.82081217e-02, -5.39186336e-02, 8.16636952e-04, -1.18537443e-02, -7.00282902e-02, 1.70655344e-02, 4.31758203e-02, -5.11375442e-02, -4.78681140e-02, -5.16157560e-02, -5.54163828e-02, 4.23399433e-02, -3.82469520e-02, -3.72273698e-02, -3.47461738e-02, -5.88146213e-04, -6.54801428e-02, 2.68675797e-02, 1.99505780e-02, -2.43793055e-03, -7.30372816e-02, -9.54395533e-03, -7.38083348e-02, -6.94819689e-02, 3.04934545e-03, 4.83664051e-02, -4.56221886e-02, -5.77237494e-02, 4.36025113e-02, -5.03345504e-02, -2.02212278e-02, 1.00638224e-02, -3.51686180e-02, -7.94213936e-02, -5.63494563e-02, -4.82487902e-02, 7.87246414e-03, -5.62866544e-03, 3.59913372e-02, 1.29792253e-02, 8.30599759e-03, -5.28406315e-02, 2.19050664e-02, -2.01606005e-02, -7.64055848e-02, -4.04053256e-02, -3.69758084e-02, -3.14761475e-02},
   {-2.47426689e-01, -5.72633818e-02, 3.79141718e-02, -3.03153247e-02, -2.26844810e-02, -2.77744792e-02, -7.57777616e-02, -3.54375620e-03, 1.58774093e-01, -6.15077876e-02, -1.93484826e-04, -5.08883186e-02, 2.56204724e-01, -1.24529943e-01, -8.26056302e-02, -3.06986086e-02, 2.38410026e-01, -1.39422059e-01, 9.04148221e-02, 1.01505347e-01, -3.89551651e-03, 5.86824678e-02, 9.58648473e-02, 1.49506390e-01, 3.93857509e-02, -1.11614734e-01, 1.75422892e-01, 1.36800617e-01, 4.32588458e-01, 3.12737882e-01, 1.59981564e-01, 9.43136290e-02, -1.83986381e-01, 1.00168362e-01, 2.84821242e-02, 7.68982843e-02, 1.97847001e-02, 7.92938322e-02, 8.36526826e-02, 3.12361196e-02, 1.06967643e-01, 7.16304593e-03, 4.17069672e-03, -4.45080437e-02, 9.62479189e-02, 4.74680820e-03, 1.13489866e-01, 6.47578165e-02, 8.45175982e-03, -5.63983023e-02, 5.08160889e-03, -4.98763137e-02, -8.31918849e-04, 1.14813067e-01, -6.93018958e-02, -2.08434202e-02, 1.82937714e-03, -2.56572105e-02, -4.37137187e-02, 1.06021643e-01, -4.92463410e-02, -6.25758618e-02, -2.37901583e-02, 1.02112740e-01, 2.99076557e-01, -2.69733489e-01, 1.95813581e-01, 1.61322549e-01, 7.36356080e-02, -3.15632783e-02, -3.64752300e-02, 3.85571830e-02, 3.20436805e-02, -1.72251582e-01, -1.29076794e-01, -7.96630234e-03, 1.05659455e-01, -1.13322280e-01, -4.21317406e-02, 4.45646532e-02, 1.30798608e-01, -1.88564420e-01, 1.74727648e-01, -7.41524771e-02, 1.46266162e-01, 1.31194159e-01, 1.28500462e-02, -1.97948385e-02, -1.61096845e-02, 9.61354673e-02, 6.60956055e-02, -1.35886166e-02, -3.08499119e-04, -2.86222678e-02, 1.43730119e-01, -1.11952424e-01, -7.75789842e-02, -3.50233018e-02, -1.05754629e-01, -4.58377264e-02, -3.10012535e-03, -8.30082670e-02, -3.47465426e-02, 1.46466750e-03, 8.68874639e-02, -1.31907776e-01, -8.78047869e-02, -1.20076668e-02, 1.65593755e-02, -2.20552366e-02, -3.00761834e-02, 1.13008328e-01, -6.21541850e-02, 1.31050885e-01, 5.14081158e-02, -2.28093322e-02, -8.18105973e-03, 1.82902664e-02, -1.28009632e-01, -1.41083539e-01, 7.18881655e-03, -6.94071576e-02, -1.05107419e-01, -1.05554007e-01, 3.58506851e-02, -1.24949500e-01, -8.30157697e-02, 1.52733669e-01, -8.69149864e-02, -9.92829278e-02, 8.90708864e-02, 2.02532157e-01, -1.25221089e-01, -1.11990862e-01, 1.00019060e-01, 1.81287348e-01, -5.59169017e-02, -1.38124108e-01, 3.12139094e-02, -9.41667408e-02, -3.21760960e-02, -1.64664760e-01, -5.44018671e-02, 3.61458622e-02, 9.47464779e-02, 1.77543059e-01, -1.53973475e-01, -6.36453107e-02, 7.66788423e-02, -1.20275721e-01, 2.14513559e-02, -8.00077245e-02, 1.13060080e-01, -2.94664055e-02, 4.26597260e-02, 5.20347804e-02, 1.45576626e-01, 2.48830721e-01, 9.22932755e-03, 1.67824522e-01, 1.41271085e-01, 1.23554409e-01, -1.01457611e-01, 2.82673717e-01, -7.21700042e-02, 4.16321959e-03, -2.90866271e-02, -5.45388795e-02, 4.42613848e-03, -1.19575888e-01, -6.77435379e-03, -1.42774917e-02, 1.54206157e-02, 3.48727740e-02, 6.28887564e-02, 3.92286200e-03, -1.87600061e-01, 1.40017429e-02, 2.58486066e-02, 3.38225346e-03, -5.44845387e-02, 2.22680774e-02, -1.06469886e-02, 4.96233739e-02, -1.39305508e-02, -5.11436649e-02, -1.05192445e-01, 5.03262505e-02, 8.49791989e-02, 1.87111460e-02, -1.40222564e-01, 1.11705307e-02, -9.50911921e-03, 1.35541126e-01, -6.52752118e-03, 6.34376109e-02, -1.06714517e-01, -2.47639548e-02, -6.09365217e-02, 4.08728160e-02, -3.32429633e-02, -1.48442388e-02, -1.62594035e-01, 8.27369317e-02, 7.90366065e-03, -2.18754150e-02, 1.01921082e-01, -2.11085416e-02, -5.85734658e-02, -1.57183595e-02, 6.33688942e-02, -5.94903491e-02, 3.46217398e-03, 5.34449257e-02, -9.34399068e-02, 6.40544742e-02, -1.43392086e-02, 1.16604440e-01, -6.61368519e-02, 1.04174418e-02, 5.40345088e-02, 5.71792535e-02, 3.98262814e-02, 2.19567958e-02, 1.23625174e-02, -1.21524736e-01, 2.36505829e-02, -8.50147679e-02, 1.60589609e-02, -8.73856023e-02, -3.96000966e-03, 1.11127175e-01, -4.17550653e-02, -4.46846448e-02, 1.00909255e-01, -3.81532945e-02, 8.49452764e-02, 4.83309962e-02, -5.72900400e-02, 7.05486089e-02, -6.13680929e-02, 6.73635453e-02, 1.11337535e-01, 9.12427157e-02, -5.11748157e-02, -1.17762990e-01, 4.49895188e-02, 7.47976527e-02, -1.22538581e-01, -8.38197917e-02, 3.74259576e-02, -1.21272691e-01, -5.34987189e-02, -7.19617680e-02, -4.56776135e-02, 1.30983004e-02},
   {8.12546536e-02, -2.55205128e-02, 2.29822826e-02, 7.89702833e-02, 3.78990024e-02, 3.49348672e-02, -2.98971552e-02, 9.17879865e-03, -3.28779519e-02, 1.19917383e-02, 1.03461079e-01, 9.75303911e-03, 1.55756861e-01, 4.40298654e-02, 1.13239475e-01, 6.22300096e-02, -8.89985859e-02, -1.43374100e-01, -9.65839475e-02, -8.35630894e-02, -5.61175980e-02, -2.31505819e-02, 5.09828925e-02, -1.16736680e-01, -7.61224553e-02, -1.02668568e-01, -4.45452183e-02, -3.71747650e-02, -2.25737095e-01, -1.79652169e-01, -4.19466421e-02, -6.84722289e-02, 5.14718071e-02, 4.62749973e-02, -7.33751804e-02, -1.52081534e-01, 9.89054590e-02, 1.44327190e-02, -4.23082449e-02, -6.93288539e-03, 1.35227323e-01, 1.35590345e-01, 6.51120320e-02, -4.45337221e-02, 2.34179229e-01, 1.02197215e-01, -1.42833665e-01, 8.62085894e-02, 1.63251072e-01, -7.05946237e-04, -4.21175323e-02, -1.10280722e-01, 4.59012352e-02, -3.11289704e-03, 1.31993750e-02, -9.95589346e-02, 1.53926443e-02, 1.00935092e-02, 7.24509582e-02, -4.70051132e-02, 2.31148191e-02, 4.52513322e-02, 1.12517513e-01, 6.39593303e-02, -1.36135876e-01, -4.30346802e-02, 1.74989030e-02, 1.17151380e-01, -1.28370360e-01, 1.26751110e-01, -2.35072244e-02, 1.36069894e-01, -5.80023825e-02, 8.56318623e-02, 7.42394775e-02, 1.79053564e-02, -1.51844425e-02, 2.84244195e-02, 1.52796388e-01, 9.49718729e-02, 1.18117064e-01, 1.87469460e-02, -2.76019350e-02, 9.18943882e-02, 1.89091206e-01, 6.31890893e-02, 4.46791798e-02, 2.42060479e-02, -1.97727531e-02, -2.92450027e-03, -1.04230959e-02, -5.30343764e-02, 1.14043944e-01, 9.68326535e-03, -2.18524151e-02, -1.06592104e-01, -1.43751577e-02, -4.08920553e-03, -1.05740279e-01, -3.66289504e-02, 7.01098591e-02, -9.98469070e-02, -5.38258329e-02, 1.54430000e-02, 4.26033922e-02, -7.94008560e-03, 6.78608194e-02, 5.28951585e-02, 5.04955389e-02, 1.06303096e-02, -4.10458632e-02, 4.82858568e-02, 3.23156756e-03, 8.52892771e-02, 5.89714311e-02, -5.43014631e-02, 1.00987524e-01, -9.16996319e-03, 8.75098407e-02, 2.54080165e-02, 6.09063543e-02, -3.57767157e-02, 5.83919212e-02, 4.03964594e-02, 8.83667916e-02, 2.58658472e-02, 9.19619352e-02, 5.47318012e-02, -8.22160393e-02, -5.35127521e-02, 5.24648745e-03, -1.44801885e-01, 7.57354051e-02, -4.24493290e-02, 7.59837031e-02, -1.67907044e-01, 3.09211127e-02, -6.94587827e-02, -1.69271100e-02, -3.81571241e-02, 8.70980471e-02, -9.75048542e-03, 5.57703059e-03, -2.91505735e-02, 6.35894388e-02, -1.31335288e-01, -1.63636938e-01, -4.03119139e-02, -4.57674526e-02, 2.62543261e-02, 7.63438344e-02, 9.42294393e-03, -1.99202672e-01, 4.80400631e-03, -3.83835360e-02, -3.70320268e-02, 6.67143241e-02, -1.30817041e-01, 4.15761694e-02, 1.85732707e-01, 8.11512023e-02, -1.68463752e-01, -1.03353575e-01, 4.54714894e-02, 6.10517226e-02, 1.83570161e-02, 1.10746734e-02, 1.46316916e-01, -4.89841439e-02, -2.57339166e-03, 1.10367248e-02, 1.14621431e-01, -2.42464188e-02, 5.11843860e-02, -1.25509063e-02, 1.38412535e-01, 6.05877750e-02, 7.67228305e-02, -8.24858667e-04, -1.65303946e-02, 1.11361139e-01, 3.30641530e-02, 4.65741828e-02, -3.27329859e-02, -3.94950025e-02, -1.84892789e-02, -4.17060079e-03, 7.78040364e-02, -4.52521369e-02, -1.35344928e-02, 4.77546081e-02, 1.04966298e-01, 1.50879338e-01, 4.18891758e-02, 2.19244324e-03, -4.76824306e-02, 5.03218547e-02, 1.55993151e-02, 2.26169731e-02, -1.57313198e-02, -3.23365480e-02, -5.05110472e-02, -7.73844197e-02, 5.07199243e-02, 1.21986484e-02, 1.57702677e-02, 1.03826232e-01, 1.49233919e-02, 1.02811456e-01, 2.09848210e-02, -2.79378369e-02, -1.18275294e-02, 7.96331912e-02, 4.03452180e-02, 4.91146892e-02, -1.21250741e-01, -4.30398472e-02, 6.39004707e-02, -5.75602911e-02, -6.24218285e-02, 1.02214001e-01, 7.07538649e-02, -5.89088362e-04, 1.69500876e-02, -3.91418394e-03, -2.15020552e-02, -9.67066139e-02, -1.56637192e-01, 1.11737594e-01, 3.89007255e-02, -1.03832446e-01, -4.72810864e-02, 7.90612623e-02, 2.36399397e-02, 1.65253207e-02, 4.42581326e-02, 1.32564269e-02, 3.59789617e-02, -2.79536061e-02, 1.84669167e-01, 5.12640662e-02, 2.42255516e-02, -1.27157331e-01, -4.40491699e-02, 7.91189522e-02, -5.46252802e-02, -1.61105711e-02, 1.36981487e-01, 8.71590711e-03, -4.94126044e-02, 2.14787144e-02, -4.33815271e-02, 1.07547119e-01, 2.81722471e-02, 8.31655115e-02, 1.64018944e-01},
   {6.41736910e-02, -2.44699165e-01, 7.97587410e-02, -5.36569916e-02, 7.78835490e-02, -1.26282364e-01, -4.77037802e-02, -8.78030285e-02, 1.64030358e-01, 5.15863448e-02, -3.48735414e-02, -5.22994697e-02, 4.75431383e-02, 1.38625666e-01, 5.18061593e-02, 2.10575126e-02, -1.39288288e-02, -1.54018313e-01, 4.96600987e-03, 2.54623219e-02, -7.58870021e-02, 3.43967155e-02, 1.62512362e-02, 7.10490495e-02, 2.31489958e-03, 9.31233354e-03, 1.20535418e-01, -2.17432454e-01, -9.91671830e-02, 3.47423442e-02, -6.26061484e-02, -1.18117824e-01, -2.02858761e-01, 2.25638479e-01, 1.04371265e-01, -3.84629518e-02, 6.37716427e-02, -1.20171167e-01, 3.07169445e-02, 1.88831345e-03, -4.10023369e-02, -6.13603033e-02, 6.32979870e-02, 1.32409364e-01, -1.83675569e-02, -1.14714161e-01, -5.39383665e-03, 1.23783888e-03, 1.40538007e-01, 1.21634319e-01, -3.36927548e-02, 9.57792923e-02, 1.30963668e-01, 1.40654162e-01, -3.91506366e-02, -8.75913650e-02, -9.49243903e-02, -1.18616700e-01, 6.13703355e-02, -5.46393823e-03, -9.05876905e-02, -1.99128129e-02, 7.29087591e-02, 1.31491736e-01, 5.19523397e-02, -1.27852499e-01, 8.44300687e-02, 2.55347602e-02, 3.43202129e-02, -1.88965886e-03, -2.99049597e-02, -1.79949284e-01, 3.97859104e-02, 7.18042850e-02, 4.87066805e-02, 3.92580032e-02, 1.62424162e-01, 2.32237443e-01, 1.56257465e-01, 1.32075502e-02, 7.80000985e-02, 9.12819058e-02, 1.58901244e-01, -8.37733448e-02, 1.23016268e-01, 1.72208413e-01, 1.43046930e-01, -9.65741947e-02, -4.58269641e-02, -1.68974642e-02, 5.02047362e-03, -3.79387313e-03, -1.66106701e-01, 8.21782425e-02, -2.06647702e-02, -3.09546422e-02, 5.72371744e-02, 9.39978734e-02, 2.24588081e-01, 7.53682777e-02, 2.96870880e-02, 1.67062189e-02, 9.23650414e-02, -6.55780286e-02, -1.67403612e-02, 2.87132189e-02, 6.18541613e-03, 4.28957716e-02, 4.42442596e-02, 2.00757273e-02, -5.88849708e-02, 2.50854120e-02, -4.47309837e-02, -9.28863660e-02, -1.02625534e-01, 1.79835036e-01, 1.64528430e-01, -1.11978315e-02, -5.39780632e-02, 1.60063520e-01, 9.01493654e-02, 5.45551330e-02, -8.88514370e-02, 8.36652964e-02, -1.10150523e-01, 6.86273351e-02, -3.30382586e-02, 4.17434648e-02, -5.52960448e-02, 4.16548960e-02, -7.78277516e-02, 6.92777410e-02, -1.30274110e-02, 5.69919497e-02, -3.16095762e-02, -1.39756203e-02, -4.92749624e-02, 5.51381446e-02, 1.39407404e-02, -1.35649011e-01, 6.47724718e-02, -1.44271925e-03, 3.02010030e-02, -1.49446398e-01, 5.93226813e-02, -4.40414771e-02, -1.63111448e-01, -4.21613120e-02, -8.14465508e-02, -7.74704292e-02, -2.69098133e-02, 7.52596259e-02, -2.12865788e-02, 7.71682411e-02, 9.25358385e-02, 1.10778883e-01, 3.13488990e-02, -3.72908488e-02, 7.80782849e-02, 2.99369991e-01, 5.28413430e-02, 1.59400664e-02, -8.36239532e-02, -2.20140535e-02, -1.65879831e-01, -5.35586253e-02, 2.42336243e-02, -2.81387344e-02, -5.50817996e-02, 1.84509568e-02, 7.57991374e-02, 1.47695303e-01, 4.71532606e-02, -1.32738560e-01, -1.25607789e-01, 3.60077381e-01, 2.04553261e-01, -7.91733265e-02, -2.11179480e-02, 9.82988477e-02, -1.46072358e-02, 1.62877589e-02, -9.07022431e-02, -2.31056083e-02, 9.54092853e-03, 1.97803788e-02, -2.32579019e-02, 1.80791505e-02, 9.50922891e-02, 1.18872285e-01, 2.78254841e-02, 9.50000063e-02, -1.59677878e-01, 1.15355402e-01, -8.61693323e-02, -1.71486586e-01, -1.05937622e-01, -7.02586537e-03, -8.96915980e-03, -3.62621881e-02, -6.40462115e-02, 4.57332470e-02, 3.91084254e-02, 7.00068055e-03, -1.25439778e-01, 1.06287301e-01, 6.46857843e-02, 1.32929878e-02, 3.96828391e-02, -3.70287262e-02, 5.17222881e-02, 3.77848223e-02, 1.34293037e-02, -5.59612513e-02, 1.08347826e-01, 7.27074146e-02, 6.94991276e-02, -2.64472701e-03, -4.28376868e-02, 1.04948707e-01, -3.66016254e-02, -5.97153679e-02, 6.19833954e-02, 9.14600268e-02, 3.65187302e-02, 1.58279970e-01, -1.95144874e-03, 1.54468685e-01, 4.24662605e-03, 4.84845834e-03, -9.37354490e-02, 1.32406890e-01, -8.39667469e-02, -1.37074307e-01, 2.69787703e-02, 1.24385897e-02, 7.72970319e-02, 6.05071671e-02, 2.86370255e-02, -6.47328747e-03, -9.65292156e-02, -5.41388579e-02, -2.53280383e-02, -4.46480226e-05, -1.79507062e-02, 2.98335496e-02, 5.22748642e-02, 3.88106965e-02, -9.26875025e-02, 1.54893054e-02, 3.41208503e-02, -1.03303276e-01, -3.59225646e-02, -1.67426243e-01, -1.83848947e-01, 1.75573960e-01},
   {3.73494513e-02, -2.50639282e-02, -4.51240391e-02, 1.64795667e-03, -4.91713472e-02, -4.39869091e-02, -4.93901074e-02, 1.57990232e-02, -7.29384087e-03, -2.60351282e-02, -4.60334644e-02, 2.34078635e-02, 7.54866423e-03, -7.10893376e-03, -1.83823556e-02, 5.52402297e-03, -7.96173990e-04, -6.61353841e-02, -3.19630504e-02, -4.05385904e-02, 1.11971786e-02, -8.68690293e-03, -4.73412238e-02, 1.60038657e-02, -4.31441739e-02, 1.99848637e-02, 2.48653069e-02, 6.12196773e-02, -2.38594115e-02, -4.80257347e-02, -2.24396363e-02, -5.27608171e-02, -4.93594930e-02, 2.67718290e-03, -5.65262288e-02, -5.34516871e-02, -5.18980958e-02, 3.28930318e-02, -2.62248274e-02, -2.58167796e-02, -4.96411929e-03, -5.10964021e-02, -6.15633354e-02, -4.78665493e-02, 1.61950253e-02, -6.92694932e-02, -5.17373346e-02, 4.90345024e-02, 3.43336836e-02, 2.33795885e-02, -1.35015557e-02, -3.92115004e-02, -2.13374291e-03, 2.65774895e-02, 4.87855710e-02, -6.65841205e-03, 1.32243671e-02, -6.22986816e-02, 9.93054919e-03, 2.95515303e-02, -2.72672176e-02, 3.36059229e-03, -6.95926026e-02, -4.74696308e-02, 4.03184630e-02, -4.05645221e-02, -4.06017527e-02, 4.32742760e-02, -4.20660190e-02, 2.59303022e-03, 2.49014385e-02, 3.48840281e-02, 1.80708095e-02, -1.24621773e-02, -2.12880466e-02, -4.89130951e-02, 1.97405908e-02, 3.67802009e-02, -3.32294293e-02, 3.20031270e-02, 2.03491934e-02, 5.09493127e-02, -6.78067356e-02, -5.54008484e-02, 2.19066255e-02, -1.58951301e-02, -6.67416826e-02, -6.32721977e-03, -2.92971134e-02, 3.44962515e-02, 3.93157043e-02, -5.01501635e-02, -2.55039502e-02, 3.72098200e-02, -6.76919073e-02, 2.31381189e-02, 3.68672982e-02, -3.30056213e-02, -3.55181731e-02, -5.48608825e-02, -1.01861423e-02, -4.58790548e-02, -1.49330450e-02, -3.83445993e-02, 2.44181752e-02, 5.10414653e-02, -5.32207675e-02, 4.10012230e-02, 1.32804466e-02, -6.18481524e-02, -2.99456827e-02, -4.23947163e-02, 5.48206046e-02, -2.79157441e-02, -3.03431191e-02, 4.72645983e-02, 1.62039567e-02, 4.32495587e-02, 2.44465917e-02, 4.54190597e-02, -3.89220901e-02, 1.48689803e-02, -5.50474115e-02, 3.32311206e-02, -4.14633639e-02, -3.00068781e-02, 2.91758981e-02, -4.15211581e-02, -4.87762690e-02, -1.35169516e-03, 1.31951403e-02, -5.48815802e-02, 4.47341576e-02, 7.45191658e-03, -2.02387199e-02, 5.60410619e-02, 4.95931506e-02, -3.28781940e-02, -2.02400982e-02, -2.41563991e-02, -6.72940165e-02, -3.11537534e-02, 1.69425327e-02, -2.02008598e-02, 3.28922570e-02, -1.88874248e-02, 4.20113392e-02, -1.28354337e-02, 3.81584615e-02, -6.49610581e-03, -4.47405055e-02, 4.63028476e-02, 4.67418656e-02, -3.78199965e-02, -5.36301807e-02, 4.39658836e-02, -2.98513956e-02, -5.45030981e-02, -5.72372153e-02, -4.12087142e-03, 3.67830060e-02, -6.64466172e-02, -2.25386992e-02, 2.51513124e-02, -1.00658555e-03, -6.02723695e-02, 2.32712831e-02, -3.95205058e-02, 1.69043671e-02, -3.70894298e-02, -6.05255514e-02, 9.58163291e-03, -4.69929203e-02, 4.20957096e-02, 5.52733839e-02, -1.71778724e-03, -3.32732387e-02, -1.68031491e-02, -4.09621708e-02, -6.60478994e-02, 4.07806374e-02, 2.07549296e-02, -2.58149598e-02, 5.28345304e-03, -4.82986532e-02, -1.99996568e-02, 3.44670005e-02, -4.37533185e-02, -5.14126532e-02, 2.51402110e-02, -1.79251656e-02, 1.28709218e-02, -2.34061591e-02, -3.52997519e-02, -1.46935349e-02, 4.45842519e-02, -3.34321819e-02, -5.59646823e-02, 3.17003280e-02, -5.19538671e-02, -6.28195554e-02, -4.77389246e-03, -4.36889715e-02, 4.42012139e-02, -3.01819369e-02, 2.28998102e-02, 2.05798782e-02, -1.14045274e-02, -2.91153416e-02, 3.87631096e-02, -6.22331575e-02, -4.87313420e-02, -3.74465212e-02, -4.71111163e-02, 2.32932083e-02, -1.91904232e-02, 5.41914590e-02, 4.10393588e-02, 7.11916480e-04, 2.36096438e-02, -4.16031806e-03, -6.45615458e-02, -3.27635221e-02, -2.45237779e-02, -4.35076877e-02, 2.29764730e-02, 5.16046677e-03, -8.16950295e-03, -5.61423460e-03, -1.82636566e-02, -7.00283609e-03, -5.90213686e-02, -3.79406102e-02, -6.50248453e-02, 4.43511456e-02, -6.67591244e-02, 2.66584638e-03, 2.31221486e-02, 1.03894966e-02, 2.16805679e-03, -2.50359159e-02, -3.26043889e-02, -3.48055847e-02, -2.43144259e-02, -3.80422287e-02, 2.93141548e-02, 8.46678577e-03, 8.84036440e-03, 2.80761607e-02, 3.14695537e-02, 2.78413221e-02, -5.82759827e-02, -5.04037775e-02, -3.73726105e-03, 6.94028195e-03, -2.64707375e-02},
   {-2.39940599e-01, 6.65637851e-02, 1.10289231e-01, 1.63581017e-02, -1.42027289e-01, 9.63792279e-02, 8.87263119e-02, -1.78642552e-02, -1.20323293e-01, 3.10162697e-02, -2.98089217e-02, -5.93243400e-03, -2.27402046e-01, -2.05329925e-01, -1.55444304e-02, -5.40265962e-02, 3.63692082e-02, 2.26845816e-01, 1.27585977e-02, -1.43116703e-02, 1.88403711e-01, 3.03112809e-03, 6.90946281e-02, 1.74719483e-01, 1.66068465e-01, 1.32457927e-01, 9.05833617e-02, 2.76418686e-01, 1.47885740e-01, 2.10523158e-01, 1.20260052e-01, -1.07400790e-01, -9.29306820e-02, -2.12273821e-01, -1.11917511e-01, 1.18735328e-01, -1.12650484e-01, 1.63817272e-01, 5.01359962e-02, 6.92066103e-02, -6.12142570e-02, -3.54879312e-02, -6.84676096e-02, -2.51258239e-02, -9.02579874e-02, -3.25557292e-02, 5.12940772e-02, 1.02329604e-01, -1.88070029e-01, -1.16682805e-01, 2.17201754e-01, 9.78017896e-02, -5.03593171e-03, -2.85920147e-02, -7.48392846e-03, -8.62373598e-03, 1.63112197e-03, -3.45367678e-02, -3.00043188e-02, -1.35583477e-02, 4.17623594e-02, -1.11706510e-01, 1.93105415e-02, 1.14364251e-01, -3.81434597e-02, 3.48376781e-02, -2.85239872e-02, -9.85390618e-02, 1.01609848e-01, 5.42383781e-03, 4.73278807e-03, 6.45909235e-02, -5.58454469e-02, -8.20893571e-02, 1.49695337e-01, -1.27319684e-02, -7.05660805e-02, -1.16020329e-01, 4.53046635e-02, -1.72406033e-01, -3.98009181e-01, -2.00435206e-01, 2.01196633e-02, 2.01920979e-02, -5.99141046e-02, -1.13754861e-01, 3.57070304e-02, -6.62963986e-02, 7.30233490e-02, -1.51368529e-01, 1.54573228e-02, -1.61741059e-02, 5.35863545e-03, -9.32580680e-02, 1.46762021e-02, 3.29603367e-02, -1.90133527e-01, -1.51455849e-01, 1.24709085e-02, -1.39953762e-01, -1.75988495e-01, -3.01881460e-03, -3.51495147e-02, 3.57854366e-02, -1.25988275e-01, -1.57875370e-03, -2.66728178e-02, -6.64202347e-02, -5.82805984e-02, -7.64520988e-02, 3.69839668e-02, -6.44917190e-02, -1.48438081e-01, 1.11482166e-01, 8.09536949e-02, 7.60968849e-02, -2.61919260e-01, 5.46392873e-02, 6.47250488e-02, -4.14246693e-02, -2.95285106e-01, -3.88823450e-02, -2.24506739e-03, -1.01506777e-01, -1.49282709e-01, -4.71614003e-02, -8.56237561e-02, 1.27974451e-01, -1.43098915e-02, 1.13225719e-02, -6.49693012e-02, 9.33518633e-02, 3.12664360e-02, -2.78245918e-02, 2.36333050e-02, 1.83261588e-01, -7.08985031e-02, -1.24260038e-01, 7.17860535e-02, 1.42350808e-01, -2.28166655e-02, -9.54428911e-02, 1.04565434e-01, 1.33528590e-01, 4.70409915e-02, 2.43923236e-02, 1.33049175e-01, -6.77520335e-02, 2.85572782e-02, 1.06308155e-01, 1.08039744e-01, 7.56890466e-03, 6.09805956e-02, 6.67139962e-02, 7.89786428e-02, 5.75018935e-02, 7.92474970e-02, 2.48304829e-01, -4.61915182e-03, -1.59563735e-01, 6.82868883e-02, -2.22756565e-02, -7.29256822e-03, -1.46107510e-01, -1.64788980e-02, 1.12628475e-01, 2.49920823e-02, 7.56003261e-02, -2.83240862e-02, -3.08767706e-02, -8.89556631e-02, -1.59741417e-02, 1.22628082e-02, 1.59350768e-01, 1.44731119e-01, -3.45253386e-02, -6.74522296e-02, -6.28425088e-03, -7.37566277e-02, 8.88700504e-03, 5.26348613e-02, 4.44179513e-02, -2.25758776e-02, 2.83590518e-02, -8.50753300e-03, 1.37978449e-01, -6.44808784e-02, 1.21030256e-01, 1.33460671e-01, 4.28429767e-02, -1.04666770e-01, -1.36137351e-01, -2.19742164e-01, 5.38504794e-02, -3.36672477e-02, 3.35076038e-05, -1.52708679e-01, -1.25442157e-02, 1.20717190e-01, 4.15505357e-02, 2.81271860e-02, -6.11818507e-02, 3.82520157e-05, -3.01645026e-02, -1.31183565e-02, 3.12555917e-02, -2.72264928e-02, 7.20231086e-02, -1.75029665e-01, -4.34404314e-02, -5.32045104e-02, 2.71137152e-02, -2.45878503e-01, 1.96757670e-02, -4.17726524e-02, 1.06165698e-02, -3.29836965e-01, 1.04911000e-01, -6.10317662e-02, 4.47489806e-02, -2.04724044e-01, 1.28189251e-01, 3.16766463e-02, 3.16186137e-02, -2.35550329e-01, -1.01049155e-01, 1.37977496e-01, 5.42014427e-02, -1.35890529e-01, 1.44482534e-02, 1.52273595e-01, -4.23206278e-04, -2.52513718e-02, -1.19016163e-01, -7.71859719e-04, 8.70934501e-02, -2.62809992e-01, -1.64728582e-01, 1.13652628e-02, 3.87493637e-04, 1.29243806e-01, -3.24989930e-02, -7.85972401e-02, 5.24452478e-02, -1.61309820e-02, 1.02923058e-01, -4.67022099e-02, 1.27962142e-01, -1.15506262e-01, 3.35618891e-02, -5.06854653e-02, 3.41235176e-02, -1.17059588e-01, 1.62919492e-01, -1.14616482e-02, -1.89527795e-01},
   {-6.04511378e-03, 5.56444936e-02, -7.17003569e-02, -5.63268252e-02, 2.91422699e-02, -2.17776615e-02, 2.47483291e-02, 1.15251867e-02, 1.08466502e-02, -1.83875859e-02, 1.35247186e-02, -2.89370511e-02, 5.37888554e-05, 2.81072631e-02, -4.63477016e-04, -2.05430556e-02, -6.63915724e-02, -2.68855202e-03, -2.57725697e-02, -1.15584126e-02, 2.87603997e-02, 4.26463410e-02, 4.42548580e-02, 5.27575649e-02, -1.14029655e-02, 4.45115231e-02, -1.64258443e-02, -2.06860155e-02, -1.78996623e-02, -5.03067225e-02, 4.03120881e-03, -1.45188458e-02, 4.46720310e-02, -1.93822179e-02, 1.71764102e-02, 2.41852403e-02, -4.92203422e-02, 2.57947054e-02, -4.99567091e-02, 2.57843267e-02, -2.74107400e-02, 4.26141955e-02, -6.52447268e-02, 4.04356197e-02, 8.14990792e-03, -6.91968650e-02, -3.18827741e-02, -2.85961083e-03, -5.23039550e-02, -3.08977291e-02, -1.03454175e-03, 1.80466648e-03, -4.36957851e-02, -4.57044989e-02, -1.90962609e-02, 3.25705372e-02, 3.11277658e-02, -6.85836822e-02, -5.66654652e-02, -6.08349033e-02, 2.39258800e-02, -1.77839659e-02, 5.33731282e-02, 1.87750198e-02, -9.08559095e-03, 8.36360268e-03, -5.58566377e-02, -1.72120426e-02, 1.90183204e-02, 4.24874797e-02, 5.58721162e-02, -4.24189307e-02, 2.98395548e-02, -2.87920777e-02, -3.46787944e-02, 4.71667349e-02, -4.46888246e-02, -2.48867162e-02, -4.64748628e-02, 4.59442176e-02, -6.14243597e-02, 9.39625781e-03, -4.70963977e-02, 6.41153231e-02, 1.01249684e-02, 1.27935773e-02, -2.96203718e-02, -4.29297611e-02, 5.93799865e-03, -3.36030535e-02, -3.31031643e-02, 1.49368332e-03, 1.45053328e-03, -1.17874714e-02, -6.52595833e-02, -4.79337312e-02, -1.73916910e-02, -2.62338901e-03, 4.65251617e-02, 1.03217261e-02, 3.76874916e-02, 3.57424915e-02, -2.54688747e-02, -2.46489737e-02, -3.06904446e-02, 2.08365731e-02, -4.89100404e-02, -3.39083001e-02, 3.13991867e-02, 5.58543615e-02, -8.39956570e-03, 2.00246945e-02, -8.25225040e-02, 1.79703743e-03, -6.71176463e-02, -5.39771803e-02, -4.17350344e-02, -1.47321969e-02, -5.58862574e-02, 4.36238199e-02, -4.68167067e-02, -1.07227964e-02, -1.43318996e-02, 1.00395847e-02, -4.09159288e-02, -5.03521785e-02, -4.65498045e-02, -9.95430257e-03, 9.30014998e-03, -3.54336426e-02, -2.80097499e-02, 3.84441856e-03, 4.33795750e-02, -2.04398371e-02, -2.11413926e-03, -1.15137352e-02, -5.05958423e-02, -4.47345078e-02, -3.87569964e-02, 5.31380996e-02, 8.60849686e-04, -2.23332513e-02, 2.17018034e-02, 4.86073792e-02, -2.30683889e-02, -7.69904209e-03, -3.67383994e-02, -2.33354196e-02, -5.32236807e-02, -2.49319989e-02, 6.24186285e-02, 4.66275122e-03, -4.84645702e-02, 1.66050121e-02, 4.38602902e-02, -3.55366953e-02, -3.94926630e-02, -6.83348440e-03, -6.71435818e-02, -3.73841240e-03, -3.06118578e-02, 3.73091251e-02, -1.68039165e-02, -2.90092602e-02, 2.64153369e-02, -5.92992604e-02, -6.14728034e-02, 3.70524563e-02, 3.64915393e-02, 3.38680856e-02, -8.70771182e-04, -1.51852695e-02, -6.76684976e-02, -4.51752804e-02, -5.51179126e-02, -3.16052996e-02, -6.57465681e-02, -6.92021921e-02, 4.97398488e-02, -4.83852588e-02, 4.80902679e-02, 2.31073238e-02, 3.93999480e-02, -5.79441451e-02, -5.58408797e-02, 3.79161350e-02, -4.46397215e-02, -1.88955497e-02, -2.37973407e-04, -1.54582607e-02, -9.24214814e-03, 1.64758991e-02, -4.31104051e-03, -1.10094240e-02, -3.56014888e-03, -2.41560093e-03, 2.27244589e-02, 2.70932657e-03, -2.97506526e-03, -1.67258307e-02, -5.73450662e-02, -3.53741869e-02, -3.41394581e-02, 2.88727060e-02, 7.31107919e-03, 4.90258494e-03, -1.68694388e-02, -1.48714455e-02, 3.88320573e-02, -2.46303476e-04, 3.34741641e-03, -2.90278010e-02, 8.26489553e-03, -9.15635470e-03, -6.12608902e-02, -5.69522716e-02, 2.51807421e-02, 2.20268071e-02, 4.69608717e-02, -6.76400065e-02, -5.51485009e-02, 4.69214953e-02, 3.82747203e-02, 1.34696700e-02, 2.72225663e-02, -6.89535514e-02, 2.04197988e-02, -6.67369962e-02, -3.05361561e-02, -6.17429093e-02, -1.06362123e-02, 2.98840962e-02, 1.23155527e-02, 8.00597074e-04, -1.25087006e-02, -1.26612931e-03, -5.92578948e-02, -4.81109470e-02, -3.77743877e-02, 4.11036648e-02, -2.21288763e-02, 4.47193235e-02, -3.26927267e-02, 1.41996145e-02, -4.21306193e-02, 2.69274525e-02, -6.20198213e-02, 6.44471794e-02, 6.32897904e-03, 8.79946724e-03, -1.21112145e-03, 3.47472541e-02, 1.04283756e-02, -6.45744894e-03, -2.54741609e-02, -2.58728135e-02},
